Layer: features.0.weight
Shape: [64, 3, 3, 3]
Weights:
[[[[-5.53730607e-01  1.42704695e-01  5.28961480e-01]
   [-5.83124042e-01  3.56551468e-01  7.65662253e-01]
   [-6.90221131e-01 -4.80188541e-02  4.84091550e-01]]

  [[ 1.75483912e-01  9.86296963e-03 -8.14131498e-02]
   [ 4.40889224e-02 -7.03225136e-02 -2.60350764e-01]
   [ 1.32391751e-01 -1.72786206e-01 -1.32263303e-01]]

  [[ 3.13025624e-01 -1.65913403e-01 -4.27522570e-01]
   [ 4.75186735e-01 -8.26772675e-02 -4.86999154e-01]
   [ 6.32025242e-01  1.93075743e-02 -2.77530313e-01]]]


 [[[ 2.32537210e-01  1.26659840e-01  1.86054602e-01]
   [-4.28053141e-01 -2.43485749e-01  2.46284440e-01]
   [-2.50661612e-01  1.41770035e-01 -5.48640266e-03]]

  [[-1.40762165e-01 -2.19025537e-01  1.50406718e-01]
   [-8.41266751e-01 -3.51756185e-01  5.63976288e-01]
   [-2.41944522e-01  5.19275784e-01  5.39149880e-01]]

  [[-3.14323962e-01 -3.70477855e-01 -1.30936608e-01]
   [-4.71441835e-01 -1.55034259e-01  3.45889896e-01]
   [ 5.43839261e-02  5.86827695e-01  4.95799243e-01]]]


 [[[ 1.77150413e-01  5.21490514e-01  9.87398718e-03]
   [-2.71847457e-01 -7.17088699e-01  3.12923729e-01]
   [-7.57526010e-02 -2.20788494e-01  3.34552497e-01]]

  [[ 3.09239298e-01  6.70709550e-01  2.05457117e-02]
   [-4.66073930e-01 -1.06969118e+00  3.35013777e-01]
   [-8.02842304e-02 -3.05223972e-01  5.44604361e-01]]

  [[ 3.15720350e-01  4.23345655e-01 -3.49762589e-01]
   [ 8.63536075e-02 -4.64569539e-01  1.18028736e-02]
   [ 1.04826510e-01 -1.45835787e-01 -1.57648940e-02]]]


 ...


 [[[ 7.75985420e-02  1.26918361e-01  3.23051959e-02]
   [ 2.21314669e-01  2.46805400e-01 -4.66366410e-02]
   [ 4.64070551e-02  2.82456912e-02  1.75283980e-02]]

  [[-1.83272704e-01 -6.74249977e-02 -7.21196318e-03]
   [-4.88547944e-02  7.04266503e-03 -1.28831804e-01]
   [-6.46005124e-02 -6.45657405e-02  4.42351364e-02]]

  [[-2.25471616e-01 -1.19312614e-01 -2.34251544e-02]
   [-9.91711989e-02 -1.51429819e-02  9.53851675e-04]
   [-2.61373986e-02  1.35672197e-03  1.42819539e-01]]]


 [[[ 1.65203176e-02 -3.22253704e-02 -3.84501694e-03]
   [-6.82063401e-02 -1.94448143e-01 -1.41662598e-01]
   [-6.95275366e-02 -1.83402315e-01 -1.74216509e-01]]

  [[ 4.27811295e-02 -6.75286353e-02 -7.03086471e-03]
   [ 1.17647024e-02 -1.49583027e-01 -1.23609900e-01]
   [ 1.02053080e-02 -1.03934266e-01 -1.17418699e-01]]

  [[ 1.26607120e-01  8.50455090e-02  1.30661160e-01]
   [ 1.75852060e-01  1.12884440e-01  1.19365111e-01]
   [ 1.46559939e-01  9.88915861e-02  1.03475623e-01]]]


 [[[ 3.21764126e-02 -1.07658058e-01 -2.63881803e-01]
   [ 2.79573798e-01 -3.74161601e-02 -2.54707962e-01]
   [ 3.48721623e-01  3.00411656e-02 -5.58983497e-02]]

  [[ 2.50632346e-01  1.55430257e-01 -1.74324512e-01]
   [ 3.92545670e-01  3.23055200e-02 -3.51914287e-01]
   [ 1.92993715e-01 -1.98978543e-01 -2.97130346e-01]]

  [[ 4.60319877e-01  4.33990777e-01  2.83524245e-01]
   [ 1.63412422e-01 -5.81645779e-02 -1.91960767e-01]
   [-1.95208415e-01 -4.56300586e-01 -4.27323639e-01]]]]

Layer: features.0.bias
Shape: [64]
Weights:
[ 0.403388    0.37779424  0.46436158 -0.32276368  0.39395565 -0.39532351
  0.39509705 -0.5495691   0.26928654 -0.76021934 -0.35077944  0.23343612
 -1.323945   -0.16935062  0.39379027 -0.10257559  0.04603291 -0.6995019
  0.15494803  0.5628074   0.30113825  0.3425294   0.10733296  0.46505284
  0.12947752  0.07882677 -0.0491918  -0.5637744   0.14650948 -0.38904887
 -0.07145469  0.06487962  0.2768253   0.3279474   0.56823695 -1.2640222
 -0.83680826 -0.9484994   0.1357712   0.2726755   0.18407875 -0.53254086
  0.35074225 -0.08268311 -1.0248262  -0.69116867 -0.7711065   0.26122683
  0.40332893 -0.48018733 -0.30656627  0.5807414  -1.3325487   0.48438498
 -0.81602573  0.23858796  0.22998208  0.49789745  0.555307    0.52302474
 -0.21815512  0.01170121 -0.5516032   0.21083267]

Layer: features.2.weight
Shape: [64, 64, 3, 3]
Weights:
[[[[-3.06060314e-02 -9.85199064e-02 -1.32597312e-01]
   [ 6.82075741e-03 -8.34829062e-02 -1.66965157e-01]
   [ 3.10149174e-02 -6.58028051e-02 -1.31710574e-01]]

  [[ 4.74066995e-02 -2.75877379e-02 -5.11273220e-02]
   [ 7.01287240e-02  8.25283211e-03 -1.83396228e-02]
   [ 6.99181035e-02  3.89928520e-02  1.62276048e-02]]

  [[ 7.06997216e-02  5.27026178e-03 -4.73616570e-02]
   [ 8.40061307e-02  4.91900630e-02 -1.64739380e-03]
   [ 8.51664133e-03  2.23500375e-02  5.91184432e-03]]

  ...

  [[ 2.76655052e-02  2.17777379e-02 -9.46060568e-03]
   [ 2.55108885e-02  4.11859481e-03 -3.45214158e-02]
   [ 2.01495718e-02  3.70683968e-02 -1.35094421e-02]]

  [[ 2.16837414e-02  4.18123528e-02  5.82844540e-02]
   [ 2.74307095e-02  3.68471928e-02  3.43351811e-02]
   [-9.48385708e-03  1.97447129e-02  5.02636805e-02]]

  [[ 2.17690468e-02 -2.13881247e-02 -9.93629247e-02]
   [-5.71563728e-02 -7.13281706e-02 -7.75998831e-02]
   [-3.75081562e-02 -2.54526753e-02 -4.50956123e-03]]]


 [[[-1.33189214e-02 -7.79791698e-02 -1.34962574e-01]
   [-3.74106318e-02 -8.18069503e-02 -1.41945794e-01]
   [-4.19131108e-02 -1.07564762e-01 -1.61644846e-01]]

  [[-6.87245326e-03  4.85980138e-02  1.50077622e-02]
   [ 1.86357629e-02  9.83927120e-03 -1.59734730e-02]
   [ 9.51635302e-04 -3.26650739e-02 -3.58241163e-02]]

  [[ 1.47800799e-02 -1.42603070e-02 -4.44684513e-02]
   [-1.84378084e-02  1.48411300e-02 -8.23373124e-02]
   [ 1.83288641e-02  2.14347756e-03  9.09108017e-03]]

  ...

  [[ 4.03423868e-02  3.61458026e-02  2.55154930e-02]
   [ 1.57792047e-02  3.10124247e-03 -1.09424191e-02]
   [ 2.37898659e-02  1.64401848e-02 -2.58350205e-02]]

  [[-2.28435006e-02  2.53714924e-03 -2.17142105e-02]
   [ 3.95336334e-04 -6.49029855e-03  1.69794131e-02]
   [-4.71996143e-03 -2.23010313e-02 -2.12981999e-02]]

  [[-2.84336880e-02 -2.67711487e-02  2.74322946e-02]
   [-5.80882281e-02 -5.58685288e-02  7.02889338e-02]
   [-6.44697249e-02 -3.81715074e-02  4.15692069e-02]]]


 [[[ 1.25082713e-02  2.47384030e-02  5.38928993e-02]
   [-2.58377362e-02 -1.61763243e-02  2.83439737e-02]
   [ 1.29480958e-02  9.07167140e-03  2.81808991e-02]]

  [[-7.93091580e-02 -8.88275653e-02 -5.57373017e-02]
   [-4.83588502e-02 -1.11392088e-01 -1.09011605e-02]
   [ 3.46400328e-02  2.32976992e-02  1.10020578e-01]]

  [[-4.36155461e-02 -1.65981408e-02 -1.05466628e-02]
   [ 2.89816540e-02  4.52794023e-02  1.68688390e-02]
   [ 8.81681293e-02  1.25991806e-01  7.22921863e-02]]

  ...

  [[ 1.39672135e-03  1.53334225e-02 -1.71964299e-02]
   [-8.31069332e-03 -1.29053751e-02 -1.43936940e-03]
   [ 6.34710630e-03  1.78245059e-03 -3.37704234e-02]]

  [[-7.93536939e-03 -5.86095965e-03 -7.62923592e-05]
   [ 6.86606916e-04 -6.00193767e-03  1.01186642e-02]
   [ 3.05813123e-02  1.68214235e-02  3.25703211e-02]]

  [[ 5.93512021e-02 -7.43979914e-03  3.82735915e-02]
   [-2.07917951e-02 -4.88326624e-02  4.02735434e-02]
   [ 2.31379364e-02  7.47935334e-03  3.50268930e-02]]]


 ...


 [[[-4.54638787e-02 -2.92747747e-02  1.02819111e-02]
   [-4.69519049e-02 -4.94731031e-02  1.76317580e-02]
   [-4.38145474e-02 -2.48710494e-02 -2.49077529e-02]]

  [[-1.93593409e-02  1.59478746e-02 -6.35543168e-02]
   [ 3.00958436e-02  2.85145827e-02 -6.44386634e-02]
   [-1.45467604e-02  2.22383183e-03 -6.33709356e-02]]

  [[-2.79145129e-02 -2.17379369e-02 -5.16908541e-02]
   [ 1.08885579e-02 -5.19944914e-02 -5.46485335e-02]
   [-3.97409275e-02  5.28323755e-04  3.53753380e-02]]

  ...

  [[-1.91304891e-03  1.09951454e-03 -7.40817888e-03]
   [ 1.84279482e-03  8.26017838e-03  1.86800063e-02]
   [ 1.17092617e-02  6.92628836e-03  3.36297899e-02]]

  [[ 8.91947560e-03  3.28074917e-02  3.92824747e-02]
   [-2.50442512e-03  1.76451809e-03  1.40555566e-02]
   [-5.47081046e-03  9.55722108e-03  2.86394525e-02]]

  [[-3.02413199e-02 -6.72252774e-02 -7.42989704e-02]
   [-3.62221226e-02 -9.77213588e-03  6.16694763e-02]
   [-1.63919982e-02  5.81561700e-02  1.28936887e-01]]]


 [[[ 4.03205380e-02  3.76769714e-02  1.71814393e-02]
   [ 4.02975269e-02  2.94791684e-02  1.66980959e-02]
   [-4.87388484e-03  2.11277474e-02 -2.62954785e-03]]

  [[ 3.10785323e-02 -1.64749976e-02  1.07688960e-02]
   [-5.86260557e-02 -4.67207879e-02 -2.77638584e-02]
   [-3.12450156e-02  1.76352859e-02 -1.22109987e-02]]

  [[-9.86745283e-02 -9.89150554e-02 -1.32247448e-01]
   [ 7.32138455e-02 -7.52382772e-03 -7.40327537e-02]
   [ 1.70701280e-01  1.83460832e-01  3.39058228e-02]]

  ...

  [[ 2.53175050e-02  3.26797366e-02  5.28738508e-03]
   [-4.18939674e-03  2.00107712e-02  1.60207823e-02]
   [-4.82763303e-03 -2.91300807e-02  7.49752915e-04]]

  [[ 7.19589600e-03 -5.15276520e-03  5.13334759e-03]
   [-8.64660542e-04  1.24172047e-02  2.08048113e-02]
   [ 2.48624454e-03 -1.31942509e-02  3.65625042e-03]]

  [[ 3.24151479e-02  1.08233429e-02  3.17200832e-02]
   [-8.49107280e-03  5.98312132e-02  3.46063599e-02]
   [-2.06741598e-02  1.65250506e-02 -1.31831355e-02]]]


 [[[-6.69552237e-02  1.08205825e-02  7.92601928e-02]
   [ 1.03613297e-02 -3.33799720e-02  5.27754165e-02]
   [-3.83718796e-02 -3.09635289e-02  6.54219165e-02]]

  [[ 5.49248643e-02 -1.91599831e-01  9.97092575e-02]
   [-1.87536970e-01  1.32478280e-02  2.47475266e-01]
   [-5.66623313e-03  2.87372172e-02 -8.97865742e-02]]

  [[-1.49048299e-01 -1.29744545e-01  1.76487476e-01]
   [-1.57737985e-01  1.51302472e-01  8.41256678e-02]
   [ 9.49880108e-02  8.51857960e-02 -3.36350054e-02]]

  ...

  [[ 1.22778881e-02  3.33483703e-02 -1.05239684e-02]
   [ 5.03097549e-02 -9.12804157e-03 -3.38901989e-02]
   [ 1.34588424e-02 -2.96006612e-02  2.68622395e-02]]

  [[ 3.10063548e-02  2.84806676e-02  5.23605244e-03]
   [ 3.89144872e-03 -1.88985523e-02 -2.18190569e-02]
   [-8.45051277e-03 -3.66315767e-02 -1.94755681e-02]]

  [[ 2.38345563e-02  4.56576198e-02  6.72970414e-02]
   [ 1.11034559e-02  3.20354439e-02 -5.84491044e-02]
   [ 2.68048272e-02 -9.39753577e-02 -4.05040570e-02]]]]

Layer: features.2.bias
Shape: [64]
Weights:
[ 0.00202609 -0.09024322  0.6163795  -0.0817516   0.24501966 -0.04875094
  0.1306904  -0.02900535 -0.14292467  0.3067921  -0.03992936 -0.25241372
  0.09988052 -0.23257008  0.03529927 -0.09038847  0.11384522 -0.03065462
 -0.01081583 -0.02152003  0.05541848  0.13820423  0.03616983 -0.45108038
  0.00561535 -0.02459356 -0.42962852 -0.1458079   0.38133118 -0.03588308
  0.11842624 -0.35273108 -0.02386894 -0.02345346  0.6499452  -0.06343034
 -0.01520436 -0.22846706  0.09405902 -0.5053168   0.19064724  0.09444505
  0.34063238 -0.08326089  0.19241905 -0.19527888 -0.04207251 -0.16063567
  0.39640832  0.20677687  0.18119289 -0.11976136 -0.07241271 -0.1239645
  0.13131854  0.10433823  0.5469485   0.5208005   0.05089747 -0.8277506
  0.4371566  -0.37343875 -0.3264075  -0.12130615]

Layer: features.5.weight
Shape: [128, 64, 3, 3]
Weights:
[[[[-6.28104508e-02  1.13392407e-02 -4.03911844e-02]
   [-5.16371317e-02 -5.70861660e-02 -1.26468077e-01]
   [-1.38241760e-02 -5.40789068e-02 -8.27411860e-02]]

  [[-5.13607338e-02 -3.35888602e-02 -3.01277172e-02]
   [-3.19813490e-02 -3.51398885e-02  2.42516119e-03]
   [-4.19601006e-03 -1.40638510e-02  1.36422459e-02]]

  [[-2.88379267e-02  5.21357767e-02  5.18484749e-02]
   [-3.73922288e-02  1.43564984e-01 -3.52545194e-02]
   [-2.92684026e-02  2.14878190e-02 -3.17392088e-02]]

  ...

  [[-2.30003670e-02 -1.11373793e-02 -4.25282866e-03]
   [-1.93205308e-02 -4.31335829e-02 -5.58733242e-04]
   [-4.28674258e-02 -1.42333824e-02 -1.35263316e-02]]

  [[-2.76980940e-02 -1.63124334e-02 -2.31372230e-02]
   [ 2.79241409e-02  3.47801000e-02 -4.50551622e-02]
   [ 4.93433215e-02  1.19311893e-02 -3.75264115e-03]]

  [[ 1.40841268e-02  1.74464826e-02 -8.35205801e-03]
   [ 6.47334754e-03  7.48860091e-02 -5.23017999e-03]
   [-3.37292701e-02  5.76700307e-02 -1.13223754e-02]]]


 [[[-8.64000351e-04 -3.00721321e-02 -2.51615290e-02]
   [-1.56060411e-02 -3.71284820e-02 -4.21328545e-02]
   [-4.98966919e-03 -2.81275483e-03 -4.83883135e-02]]

  [[-2.10497957e-02 -1.28439153e-02  2.34342809e-03]
   [-3.19276936e-02 -3.51254679e-02  1.34956660e-02]
   [ 1.28400773e-02 -2.17217323e-03  1.99155826e-02]]

  [[-5.48534729e-02 -1.47028128e-02  5.77417724e-02]
   [-1.49696991e-01  9.08382535e-02  1.80179119e-01]
   [-5.12927771e-02  4.00093524e-03  7.57907033e-02]]

  ...

  [[ 1.32809505e-02 -2.77378503e-02 -4.95678149e-02]
   [ 2.39730310e-02 -2.38946378e-02 -6.58356771e-03]
   [ 5.98733686e-02  2.11321302e-02 -1.52236335e-02]]

  [[-5.21454550e-02 -2.64140815e-02 -2.58407183e-02]
   [-3.08157112e-02 -5.01577929e-02  3.90215777e-02]
   [ 4.18702923e-02 -2.21687779e-02 -3.25234160e-02]]

  [[-2.41338019e-03  3.26567679e-03  2.73561608e-02]
   [-4.20356989e-02  7.52907014e-03 -1.17256688e-02]
   [ 4.04407494e-02  1.22642778e-01 -4.87284884e-02]]]


 [[[ 3.31801847e-02 -2.22599134e-02 -3.35398014e-03]
   [ 1.45703489e-02  7.59329796e-02 -5.27287424e-02]
   [-4.91564870e-02  3.98457646e-02  8.74389778e-04]]

  [[ 1.56698935e-02  5.40176127e-03  4.56656404e-02]
   [-6.35885913e-03  4.67070751e-02  4.53052223e-02]
   [-7.16168061e-02  3.80625986e-02  1.46906972e-02]]

  [[-4.56940606e-02  3.27032693e-02  1.12621617e-02]
   [-4.95786406e-02  2.95273159e-02 -2.76337843e-02]
   [ 1.16223823e-02  5.63971139e-02 -2.68609114e-02]]

  ...

  [[ 1.17921140e-02 -2.65913997e-02 -2.00845549e-04]
   [-6.08898364e-02 -5.58851138e-02 -3.81486826e-02]
   [ 3.84061672e-02 -9.77897923e-03 -1.42216135e-03]]

  [[-4.44982648e-02 -2.24459991e-02 -6.24585040e-02]
   [-2.57280637e-02  1.12219015e-02 -2.50336956e-02]
   [ 1.97463762e-02 -4.17204574e-02 -3.27452198e-02]]

  [[ 2.32752822e-02 -5.65966417e-04  1.70232560e-02]
   [-3.79293635e-02  8.40743855e-02  1.55003341e-02]
   [ 8.41870438e-03 -5.30713983e-02 -1.91202462e-02]]]


 ...


 [[[ 6.84400648e-03 -9.47843399e-03 -1.94655899e-02]
   [-1.76080596e-02  4.33300845e-02 -4.13692370e-02]
   [-2.63909418e-02 -2.85065956e-02 -9.89861204e-04]]

  [[-6.26221672e-02 -4.57750559e-02  1.00373365e-02]
   [-3.51231582e-02 -5.35600707e-02  2.66104601e-02]
   [ 7.14170840e-03 -1.46459332e-02  6.57334970e-03]]

  [[ 1.54140294e-02  2.74924487e-01  2.14354977e-01]
   [-9.29704681e-02 -1.75202619e-02  6.87704086e-02]
   [-1.47978976e-01 -1.11290716e-01 -7.85313621e-02]]

  ...

  [[-8.91596358e-03  5.59116155e-02  8.15497059e-03]
   [-8.32869858e-03 -3.85220014e-02 -4.43838090e-02]
   [ 3.07688061e-02  5.27614765e-02 -3.30689130e-03]]

  [[ 4.48581902e-03  1.08399585e-01 -9.78896301e-03]
   [-3.97453494e-02 -1.38794705e-01  1.24881752e-02]
   [-4.73212674e-02 -2.92510260e-02 -2.40573660e-02]]

  [[-9.84906107e-02  7.14279991e-03 -3.58217619e-02]
   [-3.72292921e-02  1.60141826e-01 -2.85980944e-02]
   [-1.48948347e-02  7.68932104e-02  7.71653205e-02]]]


 [[[ 7.33942389e-02  4.97512557e-02  2.08297111e-02]
   [ 1.64386872e-02  1.74012389e-02 -2.36030873e-02]
   [-2.31647268e-02 -9.27612558e-02 -2.49030422e-02]]

  [[-4.52514850e-02 -2.44576056e-02  9.81242489e-03]
   [-8.45123455e-03 -2.08199248e-02  2.85779405e-02]
   [ 4.51040342e-02  1.28102500e-03  2.38330420e-02]]

  [[ 8.33000988e-02  6.65729567e-02  3.14326733e-02]
   [-1.12662360e-01  9.91673470e-02  1.68354452e-01]
   [-3.56071219e-02 -4.21543382e-02  5.09725772e-02]]

  ...

  [[-6.14476874e-02  3.58273052e-02  5.32397814e-02]
   [-4.37608659e-02 -2.43006162e-02  2.91102249e-02]
   [-3.80082201e-04  3.33447531e-02  5.75017976e-03]]

  [[ 2.87964911e-04  6.55297283e-03 -6.00241348e-02]
   [-4.66290861e-02 -1.98997557e-02  9.36907623e-03]
   [ 7.91853815e-02  6.48206696e-02  1.01420078e-02]]

  [[ 7.49165565e-02  4.84512411e-02  1.59263238e-01]
   [-4.05704081e-02 -1.65757611e-01  3.16829272e-02]
   [-5.54029010e-02 -1.42549919e-02  2.35509332e-02]]]


 [[[-1.40408790e-02 -9.39386617e-03  3.37139815e-02]
   [ 6.17862120e-02 -7.33425766e-02 -4.91627641e-02]
   [ 7.03140348e-02  7.08622709e-02 -3.56697440e-02]]

  [[-6.04742207e-03  2.39959336e-03  2.47229319e-02]
   [ 1.18732341e-02 -1.49140768e-02  2.69623734e-02]
   [-9.53749288e-03 -2.87175421e-02 -1.20855346e-02]]

  [[-1.01721153e-01 -2.34139904e-01 -5.63357100e-02]
   [ 7.50194639e-02  1.39295612e-03 -6.25355765e-02]
   [ 1.49131954e-01  2.49701694e-01  1.41866833e-01]]

  ...

  [[-6.77393563e-03 -4.88373898e-02 -3.63532850e-03]
   [ 1.81164723e-02 -3.61248441e-02  6.84076548e-03]
   [ 3.98918949e-02  4.82517818e-04  1.63668375e-02]]

  [[-6.73169494e-02 -1.94747850e-01 -9.33078229e-02]
   [ 1.35583773e-01  7.93047026e-02 -9.17800516e-02]
   [ 1.05926963e-02  3.32291722e-02  2.09048484e-02]]

  [[ 7.55565986e-02 -2.72724684e-02  1.55183179e-02]
   [-6.96438784e-03 -1.03594393e-01  4.68408987e-02]
   [ 3.00224647e-02 -5.47815859e-02  5.34613207e-02]]]]

Layer: features.5.bias
Shape: [128]
Weights:
[ 8.66462439e-02 -1.81413982e-02  1.34189308e-01  2.16866974e-02
  6.25914484e-02 -7.47219548e-02  3.30889672e-02  9.04041678e-02
  1.83411941e-01  7.45012984e-02  5.99111617e-02 -1.43308118e-02
  1.71029076e-01  6.27857121e-03  3.50134745e-02  1.79117292e-01
 -5.89075312e-02  1.27020478e-01  1.79137602e-01  2.37464055e-01
  1.87255163e-02 -2.89491564e-02  1.87447369e-01  3.98398116e-02
  1.46535531e-01  2.19231602e-02  1.04978696e-01  1.42090261e-01
 -7.09937364e-02 -1.83451623e-02  8.89753178e-02  5.70541210e-02
  1.38884813e-01  2.08181530e-01  1.07744381e-01  8.54098350e-02
  1.71495117e-02  2.71078497e-01  8.71190578e-02  5.93714193e-02
  3.16647023e-01 -5.26324213e-02  1.50771454e-01  6.40802011e-02
  1.76034763e-01  1.70290723e-01 -6.46176934e-02  1.36159822e-01
  1.67232715e-02 -6.78270012e-02  6.30596206e-02  1.49205938e-01
  1.05069712e-01  4.78220023e-02  2.76492029e-01  7.23422095e-02
 -1.26129642e-01  1.63446039e-01 -6.45222440e-02 -7.85993971e-03
  1.43762335e-01  1.61444321e-01  2.55098902e-02  1.17512599e-01
 -8.88159052e-02  2.22395107e-01  5.57712540e-02  1.43720536e-02
  1.64511561e-01 -1.98819369e-01  1.90567735e-04  2.29228660e-02
 -1.72585383e-01  8.12009498e-02  3.79783027e-02 -1.10630728e-01
  6.84498847e-02  5.33129126e-02  5.55937132e-03  6.82566613e-02
 -2.56342173e-01  8.12442675e-02 -6.92475289e-02  5.45477681e-02
 -5.98967895e-02  1.20191544e-01 -1.72026455e-01  7.09605888e-02
  3.09688281e-02 -8.08176473e-02  5.12652397e-02 -2.06202582e-01
  1.94476351e-01 -8.89904350e-02 -8.61476958e-02  1.70880541e-01
  1.63141638e-01  2.25476757e-01  1.36261940e-01 -2.89907530e-02
 -8.53375122e-02 -1.59070408e-03  1.28493253e-02 -7.63866082e-02
 -2.34899484e-02  3.29567902e-02  1.65525094e-01 -2.15219073e-02
 -1.00907274e-02  1.25625595e-01  2.00169683e-01  1.65845573e-01
  2.49826182e-02  9.05284733e-02  1.58765852e-01 -1.41610891e-01
  8.81577432e-02  4.90402505e-02 -7.79145285e-02  1.30448565e-01
  8.25259238e-02  2.05950141e-01  7.49433339e-02 -9.72832553e-03
 -1.08299628e-02  7.43878111e-02  7.42354691e-02  1.44826218e-01]

Layer: features.7.weight
Shape: [128, 128, 3, 3]
Weights:
[[[[ 2.57882793e-02 -1.98517703e-02 -1.06967092e-02]
   [-1.61136854e-02 -4.17585345e-03  8.45824927e-03]
   [ 4.03086981e-03  1.89731754e-02  3.80592719e-02]]

  [[-5.42605221e-02 -2.98715346e-02  1.15060210e-02]
   [-1.82661712e-02 -1.57083254e-02 -1.27261132e-02]
   [ 2.08670329e-02 -5.64251607e-03 -5.12177881e-04]]

  [[ 1.89607348e-02 -2.37658247e-03  6.14271732e-03]
   [-5.17612696e-02 -1.72715373e-02  8.70752893e-03]
   [-4.43834178e-02  2.36609038e-02  9.07098353e-02]]

  ...

  [[-1.86029430e-02 -2.24117842e-02  1.42658420e-03]
   [-1.08099449e-02 -1.25629166e-02  5.85553534e-02]
   [-1.96032301e-02  3.82923037e-02  6.60332218e-02]]

  [[ 8.00530538e-02  4.59742583e-02  4.28542271e-02]
   [ 3.41437273e-02  4.12275717e-02  8.41065496e-03]
   [-8.52115005e-02 -7.21485987e-02 -6.13674633e-02]]

  [[-5.18718399e-02 -1.72690991e-02  8.34119692e-03]
   [-1.56567749e-02  6.53570611e-03  5.34416130e-03]
   [ 7.05459416e-02  6.66395053e-02  2.97432039e-02]]]


 [[[ 1.44767705e-02  1.73724797e-02  3.86367291e-02]
   [ 1.71223171e-02  6.54992228e-03  3.32772583e-02]
   [ 5.17353080e-02  5.22316881e-02  2.20859870e-02]]

  [[-4.98169288e-03  7.84767047e-03  1.04809820e-03]
   [-5.52543532e-03  1.17305666e-03 -2.88460590e-02]
   [-1.51658421e-02  1.47115635e-02 -2.59959288e-02]]

  [[ 1.43125979e-02  7.78634381e-03 -2.57096048e-02]
   [ 3.64454947e-02  3.80371399e-02  2.15684194e-02]
   [ 3.96325290e-02  4.13954854e-02 -2.73489058e-02]]

  ...

  [[ 1.96680594e-02 -1.84953362e-02 -4.51700995e-03]
   [ 1.00128725e-02  8.02324153e-03 -4.45540436e-02]
   [ 2.39614565e-02 -2.25131623e-02  3.89673118e-03]]

  [[-9.33176652e-03 -2.79745786e-03 -4.53999359e-03]
   [ 1.93058979e-03 -3.13149542e-02  6.24945387e-03]
   [ 8.43598414e-03 -3.65333073e-02  3.61746224e-03]]

  [[-3.06654833e-02 -4.48967293e-02 -7.73724318e-02]
   [-3.91197056e-02 -6.08605966e-02 -8.40054154e-02]
   [ 5.75745627e-02 -4.99733724e-04 -1.22967921e-01]]]


 [[[-3.75329517e-02  6.19575903e-02 -1.57727897e-02]
   [-4.79936786e-02 -5.29175811e-02 -5.53572699e-02]
   [-9.84679558e-04 -2.20805239e-02  8.15424416e-03]]

  [[ 2.10688561e-02 -3.11432667e-02 -2.82633137e-02]
   [-5.51082082e-02 -1.25589669e-01 -8.19827169e-02]
   [ 2.11427584e-02 -3.43963094e-02 -1.19074984e-02]]

  [[-9.85821523e-03 -5.12749748e-03  1.44241366e-03]
   [ 5.59971295e-02  1.35617614e-01  1.92565862e-02]
   [-6.56867251e-02 -1.83092207e-02 -3.94703560e-02]]

  ...

  [[ 2.82266419e-02  4.50863577e-02 -3.02882288e-02]
   [-1.68395136e-02 -2.21792934e-03 -3.21859531e-02]
   [-4.69692275e-02 -8.18059221e-02  7.71938413e-02]]

  [[-7.41629899e-02 -4.76453118e-02  5.82251400e-02]
   [-7.10745901e-02  1.00403326e-02  6.58055842e-02]
   [-3.93982511e-03 -9.77293029e-03  9.51993391e-02]]

  [[-4.34132516e-02  2.71013081e-02 -1.26358466e-02]
   [ 3.74884787e-03  4.29130485e-03  3.08996905e-03]
   [ 3.34327854e-02  3.03835515e-02  5.10193929e-02]]]


 ...


 [[[ 1.54681690e-02  5.14623113e-02  2.28812285e-02]
   [ 5.73290437e-02  1.73251256e-02 -1.27694122e-02]
   [ 3.11183818e-02 -3.90260369e-02 -6.23584166e-02]]

  [[-7.07369596e-02 -4.58672605e-02 -1.87646467e-02]
   [-6.74200756e-03 -1.00104613e-02 -6.20324165e-02]
   [ 6.29413314e-03 -1.37769636e-02 -5.59972264e-02]]

  [[-1.24749942e-02  2.60694344e-02 -4.55118809e-03]
   [ 4.89362255e-02 -7.68614653e-03 -1.04150787e-01]
   [ 1.12870252e-02 -4.48477268e-02 -8.43817089e-03]]

  ...

  [[ 7.00059161e-02  5.72384521e-02 -3.42753902e-03]
   [ 4.74540330e-02  4.82090563e-03 -8.87956247e-02]
   [ 6.88284114e-02 -3.65913771e-02 -8.38828757e-02]]

  [[-8.61389786e-02 -4.48399261e-02 -5.27726710e-02]
   [-3.16192806e-02  8.50024575e-04  2.50913016e-02]
   [ 4.18671640e-03  2.55402308e-02  5.28854802e-02]]

  [[-2.63342410e-02 -8.20946097e-02 -4.94130701e-02]
   [-1.45197073e-02 -6.72722012e-02 -4.84001674e-02]
   [-3.44499350e-02 -5.31208254e-02  1.45092392e-02]]]


 [[[-2.12208275e-02 -2.63952333e-02 -6.81774840e-02]
   [-1.33078722e-02 -2.41939593e-02 -2.19115056e-02]
   [-1.82932410e-02 -1.89230703e-02 -1.03529599e-02]]

  [[-2.79439297e-02 -2.59068571e-02 -1.55823063e-02]
   [-4.84426953e-02 -6.00697752e-03  1.21756988e-04]
   [-3.35871056e-02 -2.29288843e-02 -3.57775390e-03]]

  [[-5.39519452e-02 -5.40466979e-02 -2.13928428e-02]
   [-2.53986213e-02 -4.82007442e-03  1.27148423e-02]
   [-3.30063850e-02 -9.29412525e-03  4.00950992e-03]]

  ...

  [[ 1.08336397e-01  3.60122621e-02 -1.42829549e-02]
   [ 6.29258752e-02  9.62254498e-03 -1.53551027e-02]
   [ 3.41785625e-02 -2.81312945e-03 -3.60308066e-02]]

  [[-6.54525533e-02 -4.35343161e-02 -1.24906981e-02]
   [-6.41962811e-02 -5.03470004e-02 -1.93504486e-02]
   [-2.00230014e-02  6.03704422e-04  1.29625353e-03]]

  [[-1.26613192e-02 -8.35798308e-03  5.18469838e-03]
   [ 4.22093319e-03 -1.90682933e-02  1.44442283e-02]
   [ 4.27954271e-03  7.29752844e-03  1.52273439e-02]]]


 [[[-7.00025028e-03  1.03235766e-02 -7.50796124e-03]
   [-4.39266994e-04  4.97100130e-03  2.41257623e-02]
   [ 4.45646234e-03  3.84357385e-02  6.33501215e-03]]

  [[-1.28209339e-02  1.21534336e-02  1.89813673e-02]
   [-9.35143046e-03  1.84348803e-02 -1.32232998e-02]
   [-5.34009014e-04  1.01251658e-02 -6.27639610e-03]]

  [[-3.91470057e-05  2.65066028e-02 -2.32737623e-02]
   [-3.33504714e-02  3.13945562e-02 -3.30219418e-02]
   [-2.08258890e-02  2.20618444e-03 -4.06052731e-02]]

  ...

  [[-1.33573217e-02  1.37384851e-02 -3.00068837e-02]
   [-4.86959890e-03  3.55009660e-02 -3.07326429e-02]
   [-3.60841416e-02 -4.85149072e-03 -2.55799349e-02]]

  [[ 4.56430875e-02 -8.47727992e-03 -1.21605238e-02]
   [ 2.90419348e-02  1.00959204e-02  2.86759306e-02]
   [-1.97274666e-02 -2.30972245e-02  1.54105888e-03]]

  [[ 4.59124893e-02  5.17513305e-02 -1.08479289e-02]
   [-6.48838421e-03 -2.10989360e-02 -1.65003780e-02]
   [-7.07773585e-03 -5.53410128e-03  1.71055142e-02]]]]

Layer: features.7.bias
Shape: [128]
Weights:
[-2.61601508e-02  3.75613153e-01 -1.09591350e-01 -1.29084468e-01
 -3.30633037e-02 -1.77712217e-01  2.66577482e-01 -3.42354615e-04
  1.01456873e-01 -1.36321113e-01 -1.34928957e-01 -8.22959244e-02
 -3.87192182e-02 -1.35402745e-02  1.48039341e-01  1.45898253e-01
  1.22111604e-01 -2.61882484e-01 -3.85037693e-03  2.60680079e-01
 -1.34149402e-01  8.11079219e-02  4.66625355e-02  8.84255394e-02
  9.21823859e-01  1.76359370e-01  2.66313463e-01 -2.49349549e-02
  1.49091139e-01  5.36384881e-02  6.03192933e-02  1.16743803e-01
 -1.25479519e-01  1.77797303e-01 -3.80827077e-02 -7.05979913e-02
 -1.63462069e-02 -8.94100871e-03 -2.62356400e-01  1.83480978e-01
 -2.47458480e-02 -1.60018336e-02  4.12494130e-02 -1.33937031e-01
  4.45608534e-02 -2.69106686e-01 -5.62077835e-02  3.50298099e-02
 -4.09975313e-02 -8.01728386e-03 -9.44963843e-02  1.18034139e-01
 -2.11642951e-01  2.55244970e-01  8.31028745e-02 -8.47982615e-02
  1.75638124e-04  3.27454396e-02  1.92754418e-02 -8.30051824e-02
  1.23512395e-01  1.24527708e-01  4.25215028e-02  1.98264450e-01
  3.59187946e-02  3.32139060e-02 -1.50682237e-02  1.74562447e-02
 -5.56838214e-02  1.85924508e-02  9.86627638e-02  5.85796870e-03
 -7.42025971e-02  8.34614187e-02  1.18033513e-01  2.27585375e-01
  2.63864368e-01  1.88823286e-02  7.11981487e-03  2.43745744e-02
 -3.80685590e-02  1.18578643e-01 -2.58089453e-02 -1.64931580e-01
 -6.00231513e-02  1.58278733e-01 -1.81284286e-02  1.71472393e-02
 -7.67798796e-02 -1.13987625e-01 -1.09775383e-02  1.53948208e-02
 -1.78092152e-01  2.42056232e-02 -6.18279725e-02  5.82811721e-02
 -2.25830078e-02 -4.39781649e-03 -2.15219751e-01  3.57104719e-01
  7.04201758e-02  8.98241252e-02 -1.22167520e-01  2.83884201e-02
  2.81275779e-01  3.21028195e-02 -2.41239015e-02  9.80245620e-02
  1.92752689e-01  4.88493145e-02  1.86944723e-01 -3.09495777e-01
  4.41796593e-02  2.66092151e-01 -6.00788184e-02 -1.00442238e-01
 -2.33575001e-01  6.02534488e-02 -5.73328361e-02  4.02805880e-02
 -1.88491687e-01 -1.05922490e-01  2.72822469e-01  1.73720077e-01
  2.60909706e-01 -3.51186134e-02  6.35235086e-02  2.14129373e-01]

Layer: features.10.weight
Shape: [256, 128, 3, 3]
Weights:
[[[[-1.10083623e-02  5.21812821e-04  2.01651044e-02]
   [-1.92387979e-02 -3.13865840e-02 -9.33944806e-03]
   [-5.26645966e-02 -5.45522943e-02 -6.99715130e-03]]

  [[ 2.00169738e-02  1.71842892e-02  2.11923532e-02]
   [ 8.56763870e-03  1.12361554e-02  2.07094382e-02]
   [ 6.66015875e-03 -2.26482693e-02  1.22094229e-02]]

  [[ 4.92622331e-02  1.05578667e-02 -2.98228045e-03]
   [-8.83043278e-04  1.22059695e-02  2.07487564e-03]
   [ 2.75861528e-02  7.71051637e-05  2.12453865e-02]]

  ...

  [[-2.05463693e-02  2.19665039e-02  2.35112663e-02]
   [-6.79017529e-02 -8.10780935e-03  2.61654966e-02]
   [-1.05807878e-01 -6.65380731e-02  2.75338301e-03]]

  [[ 3.65588181e-02  3.62587534e-02  4.63472046e-02]
   [-9.38689709e-03  7.92048778e-03  3.23475040e-02]
   [-3.55390422e-02 -1.53184943e-02  1.18643430e-03]]

  [[-2.09997129e-02  5.73213957e-03 -8.20295233e-03]
   [-1.82312522e-02  1.22541664e-02  1.48531450e-02]
   [-3.07320692e-02 -5.54765714e-03 -2.59140413e-03]]]


 [[[-1.14173740e-02 -2.84910332e-02 -3.23797911e-02]
   [ 2.31062085e-03 -1.51361497e-02 -2.77198348e-02]
   [-4.14404385e-02 -3.72879542e-02 -1.80894881e-02]]

  [[ 3.93573847e-03 -6.32185489e-03  6.66145282e-03]
   [ 2.08285153e-02  1.17398724e-02 -2.57861218e-03]
   [ 2.24046409e-02  1.26568582e-02 -1.98558923e-02]]

  [[ 5.55302389e-02  7.89469332e-02  7.76568502e-02]
   [ 9.18509588e-02  3.19862217e-01  1.60329640e-01]
   [ 7.96468779e-02  2.14831755e-01  1.26936316e-01]]

  ...

  [[ 1.39307173e-03 -3.20479758e-02 -2.04304922e-02]
   [-2.46744901e-02 -4.81568873e-02 -5.44718914e-02]
   [-3.86499539e-02 -5.10031842e-02 -2.02754773e-02]]

  [[ 4.05644327e-02  1.26182428e-02  9.25951917e-03]
   [ 2.63596606e-02 -1.42428624e-02 -1.04712322e-02]
   [-7.41694588e-03 -2.06034966e-02 -2.53451671e-02]]

  [[ 1.31676483e-04  5.70456544e-03 -2.10235812e-04]
   [ 4.65562567e-02  7.78468419e-03  1.26814218e-02]
   [ 6.81435806e-04 -1.50334528e-02 -1.16444100e-02]]]


 [[[-2.07504109e-02 -3.41879725e-02 -2.83403089e-03]
   [-4.37540710e-02 -5.69949113e-02  1.28626041e-02]
   [-3.15178148e-02 -6.60913885e-02  1.46987885e-02]]

  [[ 5.07472456e-02 -3.66348191e-03  3.68007389e-03]
   [-1.92608440e-03 -4.48456816e-02  5.42758554e-02]
   [-2.33494351e-03 -2.05599349e-02  4.70011532e-02]]

  [[ 2.79414207e-02  5.98226488e-02 -1.03929639e-02]
   [ 8.71314779e-02 -4.72698128e-03  1.12490086e-02]
   [ 6.91374168e-02  7.57375208e-04  1.63388774e-02]]

  ...

  [[-2.69821659e-02  4.00791392e-02 -7.79298600e-03]
   [-3.70760895e-02 -1.93123966e-02 -2.70628482e-02]
   [-1.06731774e-02 -2.45347954e-02  9.97830927e-03]]

  [[-1.20828589e-02  2.46256776e-03 -1.49403168e-02]
   [ 2.15477892e-03  2.94468272e-02 -2.18108925e-03]
   [-2.05335431e-02  3.72429825e-02 -2.71207131e-02]]

  [[-1.30468952e-02 -3.75886224e-02 -6.57439753e-02]
   [ 8.35696608e-03  8.33059475e-03 -3.16938125e-02]
   [-1.65937636e-02 -2.77054170e-03 -8.82987306e-03]]]


 ...


 [[[ 1.93153936e-02  1.21454801e-02 -3.11759356e-02]
   [ 6.30267430e-03 -7.14811555e-04 -3.19266506e-02]
   [ 1.93637591e-02  4.20519570e-03 -1.95658393e-02]]

  [[-1.98549982e-02  1.74304117e-02  2.40151472e-02]
   [ 2.14443430e-02  3.72373760e-02  1.46805756e-02]
   [ 1.58012137e-02  2.61802766e-02 -1.69948954e-02]]

  [[ 4.52512167e-02  4.05531898e-02 -7.13693909e-03]
   [ 3.36688608e-02  2.85276808e-02  2.54680663e-02]
   [ 8.56694940e-04 -2.91743074e-02 -1.85542200e-02]]

  ...

  [[-2.49688271e-02 -3.04268692e-02 -9.19995643e-03]
   [ 1.92080960e-02 -4.94187735e-02 -3.15811373e-02]
   [ 3.05359103e-02 -2.16614045e-02 -2.95205209e-02]]

  [[ 4.39939983e-02  5.19590005e-02  3.95733751e-02]
   [ 1.39787616e-02  1.14141619e-02  3.10202013e-03]
   [ 3.26508860e-04 -8.94959643e-03 -7.76906125e-03]]

  [[ 1.49436463e-02  5.22609288e-03 -1.34852873e-02]
   [ 3.27518545e-02  3.75786424e-02  2.51158103e-02]
   [ 2.99067963e-02  5.70221059e-02  3.03117204e-02]]]


 [[[ 4.99529690e-02  4.88325693e-02  5.23094125e-02]
   [ 3.72847691e-02  1.92632917e-02 -2.60150409e-03]
   [ 2.81972270e-02 -1.73659846e-02 -1.46884499e-02]]

  [[ 4.18238640e-02  5.11543602e-02 -8.52726679e-03]
   [ 3.71803492e-02  3.88310589e-02  3.73520376e-03]
   [ 7.83998240e-03  2.25716792e-02 -2.84500644e-02]]

  [[-1.75129194e-02  1.50967455e-02  6.88108895e-03]
   [-1.10406373e-02 -4.04745154e-02 -1.77878216e-02]
   [-2.06931327e-02 -5.66531066e-03  1.13767730e-02]]

  ...

  [[ 1.37474379e-02  9.72987153e-03  1.45054143e-02]
   [ 2.71145757e-02  2.36125756e-02  4.56370488e-02]
   [ 2.64364742e-02  5.47564887e-02  1.08912801e-02]]

  [[ 2.00903062e-02  1.51755782e-02  1.13193830e-02]
   [ 8.36801995e-03 -1.94353182e-02 -1.65455416e-02]
   [ 6.32706156e-04 -2.20412668e-02  4.58666182e-04]]

  [[-5.07059321e-03  1.81517322e-02 -9.41082090e-03]
   [ 4.83707301e-02  4.03912924e-02  2.30978206e-02]
   [-3.63110285e-03 -1.96291097e-02 -1.48820272e-02]]]


 [[[-3.81830800e-03 -3.62973921e-02 -3.26571688e-02]
   [-2.42053736e-02 -9.73982457e-03  3.26258205e-02]
   [-5.63664036e-03 -4.02921438e-03  2.06396263e-03]]

  [[ 3.11222337e-02  4.88163298e-03 -1.54821435e-02]
   [ 6.24545738e-02  5.12922369e-02 -1.90348849e-02]
   [ 5.93649270e-03  3.68900709e-02 -1.88709833e-02]]

  [[-2.64421385e-02 -3.07290144e-02 -4.84127551e-02]
   [ 1.63973998e-02 -6.33931160e-03 -9.19184741e-03]
   [ 2.15742947e-03 -5.16938157e-02 -2.19388101e-02]]

  ...

  [[ 1.90261961e-03 -3.03050820e-02 -1.53123727e-02]
   [-1.83267202e-02  1.98535295e-03  1.43063196e-03]
   [-3.11729386e-02  2.79187746e-02  3.57500315e-02]]

  [[ 2.54990123e-02 -1.91742831e-04  1.88871298e-03]
   [ 2.05507483e-02  4.81855776e-03 -2.37561800e-02]
   [ 1.66651432e-03  1.35476915e-02 -7.03710364e-03]]

  [[-7.92191364e-03 -9.30375140e-03 -4.38831653e-03]
   [ 2.50653327e-02  4.25994284e-02  5.95065467e-02]
   [-3.59189622e-02 -3.53875980e-02 -1.77997258e-02]]]]

Layer: features.10.bias
Shape: [256]
Weights:
[ 0.02016008  0.03380367 -0.06984168  0.09233105 -0.0506669  -0.11497463
  0.04491628  0.05213217 -0.090297    0.05829919 -0.06901518  0.12364185
  0.03407783  0.33696073  0.08506226  0.20526402 -0.01171548  0.02979586
  0.03174376  0.06931467  0.26389223  0.02904799 -0.01164531  0.25318718
 -0.02764784 -0.03190019  0.17306387  0.10323004 -0.04821477 -0.070035
  0.13773797  0.11212951  0.12470427 -0.18657482  0.05234581  0.01285538
 -0.09792976  0.04357909 -0.04282878 -0.05247425 -0.04520414  0.02063759
 -0.03495993 -0.27771693  0.0497369  -0.01203976  0.08024821  0.02286156
 -0.06593196 -0.04748349  0.03311742  0.01336427  0.07917506 -0.16697364
 -0.02236658  0.26181984 -0.07995316 -0.08169626  0.1192271   0.16435628
  0.06904832 -0.06928121 -0.04534104  0.00070498  0.03837921  0.13810512
 -0.03286073  0.12167958 -0.15710126  0.10482012  0.2536721   0.07288337
  0.00646109 -0.10819656  0.06371682  0.18314086  0.01791943  0.02425839
 -0.00312087  0.02261467  0.01553048  0.10978112 -0.01277253  0.09409562
 -0.01312545 -0.01086759  0.16507593  0.07459897 -0.01992923  0.17157315
  0.18265447  0.03860891 -0.04619027  0.07529125 -0.05192493  0.07582614
 -0.07365786  0.16724534 -0.08334453  0.08664871  0.00482997  0.17712618
  0.0610531   0.01431215 -0.01908159 -0.00373213 -0.05032976  0.0224045
  0.02896253 -0.06027924  0.06064561  0.04794516  0.06233252  0.04665287
  0.05086122  0.00574566 -0.10177975  0.3234575   0.0255144  -0.02590817
  0.03344551  0.02219377  0.09599914 -0.03045027  0.11433283  0.06612195
 -0.01269749 -0.11671488 -0.10400825 -0.01354645 -0.03641827 -0.02895083
 -0.025001    0.18755999 -0.03255515  0.09893283  0.03416547 -0.08972529
  0.09438521  0.17890981 -0.02817241  0.13378029  0.0010148  -0.18205637
 -0.03188791 -0.00673967 -0.03378021  0.00766045 -0.01488118  0.09793782
  0.10155351  0.24054208  0.03884989  0.00892574 -0.0197876   0.01204208
  0.10046353 -0.06860703 -0.14309847 -0.00150019  0.0348496   0.02248758
 -0.0253831  -0.01482425 -0.10537746  0.02355589 -0.05986331  0.02785068
 -0.09507684 -0.00266344 -0.00679972  0.09173514  0.02156508  0.02608605
  0.14501478 -0.0396012  -0.03145767 -0.144538    0.0359551   0.02189695
  0.11833332  0.03524672 -0.02463845  0.04750299  0.1258395  -0.13938129
  0.05674767  0.09459531  0.01465499  0.1129025   0.07787693  0.08036584
  0.02714719 -0.03233807 -0.01291972 -0.03873067 -0.04463508  0.12169684
  0.05983716  0.04331812 -0.13186029  0.12679082 -0.12342466  0.03163553
 -0.08561962  0.12490177  0.06605414  0.00183951 -0.02161636 -0.0617428
  0.2799611  -0.07650933  0.12730035 -0.01889656  0.09656113 -0.14767553
 -0.08376927  0.18786088  0.01745496  0.07950498 -0.15086395  0.04099644
 -0.03835703  0.18172215 -0.01463253 -0.00339861 -0.10285798  0.00611241
 -0.05400619  0.06981212 -0.00749231  0.04861579  0.05490694  0.18059878
  0.06578868  0.02287895  0.05162922 -0.01906326 -0.04344421  0.06735875
 -0.00600753 -0.09539872 -0.06589862  0.13809745 -0.07371374 -0.01440752
 -0.02121005 -0.12984902 -0.07941289  0.10225181 -0.07543478 -0.13804238
 -0.04330405  0.08864067  0.11967211  0.10587382]

Layer: features.12.weight
Shape: [256, 256, 3, 3]
Weights:
[[[[ 1.44578768e-02  5.42617962e-02  2.59674452e-02]
   [-1.63420215e-02  1.61328930e-02  3.69616831e-03]
   [-8.67733359e-02 -4.24301401e-02 -2.77969521e-02]]

  [[ 8.42928514e-03 -1.07956724e-03  5.86387049e-03]
   [ 5.38808201e-03 -3.89318122e-03  2.03967039e-02]
   [-2.72158179e-02 -1.74108660e-03 -2.56637600e-03]]

  [[-6.00554273e-02  2.79275030e-02  5.73069155e-02]
   [-7.84120113e-02  1.05879223e-03 -2.22178753e-02]
   [-2.08411012e-02  5.35036810e-02  9.24330950e-03]]

  ...

  [[ 5.46442298e-03  9.64757893e-03  1.44999987e-02]
   [ 7.95053435e-04  7.99148809e-03  5.18640596e-03]
   [-9.70045291e-03 -1.40693933e-02 -8.93345289e-03]]

  [[ 1.52279409e-02 -3.41198593e-02 -5.43909930e-02]
   [-8.18243902e-03 -7.15847919e-03 -3.79064791e-02]
   [-1.50724985e-02  6.28155097e-02 -4.95336950e-03]]

  [[ 1.10937031e-02  7.80725554e-02  2.73497552e-02]
   [-2.27229297e-02  4.15286385e-02 -1.95981916e-02]
   [-1.64189860e-02 -1.66791622e-02 -9.17279162e-03]]]


 [[[ 3.57493386e-02  2.48982515e-02  1.90014802e-02]
   [ 8.73118523e-04  1.99762248e-02  2.97331680e-02]
   [ 3.07355588e-03  4.21734946e-03  7.26809539e-03]]

  [[ 4.78834063e-02  6.19089529e-02  9.27551910e-02]
   [-9.38048400e-03 -1.68691669e-02  2.88511813e-02]
   [ 9.37220640e-03 -3.05483099e-02 -1.61176715e-02]]

  [[ 1.19300969e-02 -7.60339992e-03  1.35024702e-02]
   [ 1.89757310e-02  8.48968234e-03  9.92386136e-03]
   [ 2.79983860e-02  3.38664046e-03  3.07062976e-02]]

  ...

  [[ 2.16110237e-02  1.35762105e-02 -2.26382515e-03]
   [ 3.19807819e-04  5.55656664e-03  1.43027597e-03]
   [-1.32207316e-03 -2.61809351e-03  1.62692722e-02]]

  [[ 9.13595594e-03 -1.36119975e-02  1.08027654e-02]
   [-1.74460299e-02 -2.30027456e-02  6.05775416e-03]
   [-1.72642842e-02 -5.34122437e-03  1.12692278e-03]]

  [[-1.26725053e-02  1.93701182e-02  2.28943350e-03]
   [ 4.01979359e-03  1.61749707e-03  1.02784000e-02]
   [-2.44826172e-02 -2.56771203e-02 -7.67671876e-03]]]


 [[[-6.92621805e-03 -5.62331825e-03 -3.51518462e-03]
   [-6.53749052e-03 -1.44483354e-02 -9.97924712e-03]
   [-2.58798860e-02 -1.32811852e-02 -1.95975453e-02]]

  [[-8.57738126e-03 -2.05718894e-02 -1.48211028e-02]
   [ 1.87670924e-02 -1.27779022e-02 -1.56700313e-02]
   [ 1.32604251e-02 -3.00040515e-03 -1.82701778e-02]]

  [[ 1.73171163e-02  1.00137172e-02  1.54209081e-02]
   [ 1.64985862e-02 -1.47775281e-02  1.23969512e-02]
   [-1.67035870e-02 -2.50135381e-02  1.47711923e-02]]

  ...

  [[ 7.03940913e-03  1.25657041e-02  1.58671141e-02]
   [ 9.89340805e-03  2.93018091e-02  4.72965511e-03]
   [ 1.13370148e-02 -1.99483591e-03  1.06919622e-02]]

  [[ 3.42116179e-03  5.14733000e-03 -1.41104823e-02]
   [ 5.12964837e-03 -1.37828561e-02 -2.90220957e-02]
   [-5.52501017e-03  6.19911589e-03  7.03557441e-03]]

  [[ 3.52732721e-03 -8.83398484e-03 -2.12538876e-02]
   [ 1.52337905e-02 -8.92117899e-03  1.27113312e-02]
   [-3.20811640e-03 -2.34762449e-02 -8.45706183e-03]]]


 ...


 [[[-2.85618566e-02 -7.51804002e-03  1.45985866e-02]
   [-2.02430133e-02 -2.94850133e-02  5.47125383e-05]
   [-2.63081724e-03 -2.86848266e-02 -1.93274803e-02]]

  [[ 7.31373578e-03 -6.88999146e-03  1.64731150e-03]
   [ 2.39343941e-02  1.72933731e-02  1.81681793e-02]
   [ 3.28930244e-02  3.27775478e-02  4.16143872e-02]]

  [[ 1.53144961e-03 -4.75849397e-02  3.95528637e-02]
   [-2.22995523e-02 -5.73129356e-02  2.50736158e-02]
   [-4.30504978e-02 -1.26138460e-02  2.36129388e-02]]

  ...

  [[-4.48262179e-03  4.69012838e-03  2.35736351e-02]
   [-7.81602971e-03 -1.03160990e-02  3.58994082e-02]
   [ 2.11776160e-02  5.72442962e-03 -1.85669807e-03]]

  [[-5.97179402e-04  2.60165217e-03  3.96941975e-02]
   [-3.08956904e-03  2.29369141e-02  3.39881741e-02]
   [-3.91731560e-02 -4.49333619e-03  9.78149101e-03]]

  [[-4.74576876e-02  9.80444402e-02  2.53729820e-02]
   [-6.12605028e-02  4.31545116e-02  1.65450405e-02]
   [-5.12831807e-02 -3.76961641e-02 -4.95479517e-02]]]


 [[[-4.33306992e-02 -8.19901191e-03 -5.35215475e-02]
   [-2.21246295e-02  1.18581662e-02 -3.40545438e-02]
   [-3.64125371e-02 -1.79785341e-02 -4.28061560e-02]]

  [[-2.50228355e-03  1.16224517e-03 -4.50947415e-03]
   [-1.59370955e-02  1.30325300e-03 -1.40392687e-03]
   [ 8.49110819e-03  1.65469870e-02  1.63015425e-02]]

  [[ 3.42554301e-02  1.44925818e-03 -2.07187124e-02]
   [ 2.31737550e-02 -2.66183633e-02 -1.89102683e-02]
   [ 8.06091540e-03 -1.63153391e-02  1.33548712e-03]]

  ...

  [[ 1.69706475e-02  3.60070332e-03 -4.91839321e-03]
   [ 3.35229747e-03  1.86163355e-02 -1.27418293e-02]
   [-2.62263347e-03  1.07546514e-02 -2.87541212e-03]]

  [[-4.11517359e-02 -1.62782613e-02  3.46585289e-02]
   [ 1.48597602e-02  2.64779404e-02  6.82048947e-02]
   [ 1.41012669e-02  4.94150221e-02  6.23576902e-02]]

  [[-3.25224586e-02  8.42826441e-03 -3.22958827e-02]
   [-2.67402101e-02  6.35190532e-02  7.26802787e-03]
   [-8.62898584e-03  5.30839860e-02  2.23543309e-02]]]


 [[[-4.81275842e-02  4.97939205e-03 -2.77307387e-02]
   [-5.28338328e-02 -1.66743901e-02 -4.88225184e-02]
   [-4.30846214e-02 -4.83418535e-03 -2.10199095e-02]]

  [[-1.80781540e-02  7.53489928e-03  2.18942054e-02]
   [ 2.05701916e-03  2.10136771e-02  2.73171421e-02]
   [-4.40437719e-03 -5.67350863e-03 -1.16776815e-02]]

  [[-3.93327465e-03  1.54313361e-02  3.10951797e-03]
   [-3.42664346e-02 -8.00407492e-03 -4.07371297e-02]
   [-1.03728632e-02 -1.31373517e-02 -2.51345038e-02]]

  ...

  [[-1.14223585e-02 -1.10683898e-02 -2.65562367e-02]
   [ 5.54020284e-04 -1.14011439e-02 -2.54778191e-02]
   [-1.05979377e-02  1.17762322e-02  2.38153283e-02]]

  [[-2.07223166e-02 -2.04300266e-02 -1.34057691e-02]
   [-2.96477098e-02 -2.08383854e-02 -3.39816213e-02]
   [-2.54227538e-02 -5.01599861e-03 -1.68185141e-02]]

  [[-2.83054244e-02 -3.15759070e-02 -4.59572487e-02]
   [-2.30972189e-02 -1.55775044e-02 -2.31836326e-02]
   [-2.19994858e-02  3.70645756e-03  2.31792824e-03]]]]

Layer: features.12.bias
Shape: [256]
Weights:
[ 0.00811141  0.00075759  0.09205049  0.04013797 -0.04588136  0.04285818
  0.00231073  0.06540582  0.08975548  0.08911181  0.06971121  0.20356177
 -0.19835079 -0.01564117 -0.02336494 -0.00902326 -0.0117174   0.03898883
 -0.03263708  0.23417446  0.10071879  0.06582526  0.01959975  0.13806564
 -0.13175206  0.02728047  0.21485294  0.01259551  0.07439956  0.17368017
 -0.11281248  0.12593193  0.0320917   0.1361737   0.006033    0.0777797
  0.16102047  0.2222777   0.16650407 -0.01318395 -0.02378061  0.14248055
  0.15520397  0.0869427   0.14120077 -0.04287744  0.06772763  0.0205536
  0.10803904  0.26395723  0.1063398  -0.02611222 -0.01404188  0.12733074
  0.04102832 -0.14617044 -0.02570126  0.01398393  0.04857759 -0.00924088
  0.02279884  0.04283908  0.02260924  0.00662196  0.00140212  0.12702473
  0.03204643  0.09888785 -0.01722259  0.14741889  0.08303409  0.1477111
  0.23713905  0.04025665 -0.05579758  0.01887782  0.04735886 -0.03112768
  0.05523425  0.02684513  0.02185244 -0.12408312 -0.04017415  0.08362134
  0.06698725  0.00826457  0.07016225  0.11470488  0.13469909 -0.01279111
  0.28899238  0.15768258 -0.18167266 -0.01595864 -0.00358712  0.08744612
  0.04037305  0.04379668  0.08614846  0.11539198  0.16071458 -0.02307972
  0.115537   -0.00182578  0.01359097  0.09498131  0.04768709 -0.09880628
  0.06162342  0.09483505 -0.06890672 -0.01017956  0.11818547 -0.12923716
  0.0222607   0.08177651  0.07222699  0.01564286  0.1165209  -0.03590766
  0.07513563  0.02901382  0.02861781 -0.05598922  0.1882572   0.01473708
  0.10535169  0.10673416 -0.10826028  0.05137721  0.10416082  0.05180618
  0.10166241  0.11138457  0.02233203 -0.08219587 -0.00898403  0.08570164
  0.02512133 -0.07312863  0.10571228  0.129495    0.04298162  0.07208445
  0.02361294  0.06709758  0.07144555  0.00031504  0.03660976 -0.07147957
  0.03933575  0.03949184 -0.02086727  0.05092859 -0.03996903  0.03183218
  0.00602392 -0.02122062 -0.01528912  0.11335699  0.00693713  0.05922956
 -0.0838782  -0.07428907 -0.16825464 -0.02441741  0.18753113  0.03686578
  0.18613705  0.09964219  0.03222415  0.07108085  0.0483078   0.11733808
  0.03223091  0.00787231 -0.04533402  0.00186081  0.00674855  0.18543445
  0.07221422  0.04620039  0.04797797  0.00302367  0.13931312  0.01490331
 -0.0285361   0.08689736  0.04245597 -0.03154596  0.05610026  0.10134093
  0.05670491  0.16359888 -0.05913281  0.10751309 -0.04563748  0.03413119
 -0.028969    0.10953064  0.13750842 -0.03558805  0.07605913  0.0287783
  0.05514494  0.1078172  -0.03630263  0.21712019  0.05256548  0.06960279
 -0.10632704  0.1261583   0.04179273  0.02901286  0.06889095  0.13728763
 -0.06783742  0.10058533 -0.00187068 -0.09189503  0.13778508 -0.09679592
  0.07351217  0.03739636  0.03388885 -0.0866223   0.06306946  0.05609966
  0.08149814  0.00470498 -0.013049    0.04995412 -0.11081745  0.01685912
  0.11484893  0.02985805  0.03981413  0.10973433  0.02447202  0.054501
 -0.19355538  0.1633023   0.0390932  -0.03283636  0.18203746  0.02458059
  0.02436948  0.09857526 -0.00621922  0.04073181 -0.0132911   0.02587381
  0.14052713  0.06534413 -0.00961244  0.05644351]

Layer: features.14.weight
Shape: [256, 256, 3, 3]
Weights:
[[[[-0.01554434  0.00335165 -0.02075105]
   [-0.0153668   0.01060495 -0.0012374 ]
   [-0.00460544  0.01777217 -0.00356061]]

  [[-0.02063294  0.00655112 -0.01814009]
   [ 0.01160421 -0.00380114 -0.02257688]
   [ 0.03557315 -0.00555957 -0.00358887]]

  [[ 0.00014331 -0.01450523  0.02593684]
   [ 0.03463034  0.02274033  0.0141672 ]
   [ 0.04856561  0.03495852  0.0235504 ]]

  ...

  [[ 0.0004042  -0.00910781 -0.0099376 ]
   [-0.0138095   0.01591875  0.01315656]
   [-0.03829207  0.00316254  0.02169854]]

  [[-0.0249602  -0.03853676 -0.02225651]
   [-0.04976021 -0.04941463 -0.0420741 ]
   [-0.04330949 -0.03730848 -0.02030147]]

  [[ 0.02019424  0.02557531  0.00706167]
   [ 0.00017423  0.00836346  0.02426666]
   [ 0.00956614  0.00676295  0.02988903]]]


 [[[ 0.00352626 -0.0296693  -0.01802671]
   [-0.00551813 -0.01107692 -0.01388442]
   [-0.00573214 -0.00499928  0.01802952]]

  [[ 0.02055606  0.01640778  0.00474952]
   [ 0.00729047 -0.01206476 -0.01660336]
   [-0.02844938 -0.04458277 -0.04165602]]

  [[-0.01033146 -0.01268747 -0.04557448]
   [ 0.02277478  0.01067619 -0.00239341]
   [ 0.04324356  0.04369273  0.00453486]]

  ...

  [[-0.00637066  0.01490658  0.01528214]
   [-0.01973633 -0.00773746 -0.00823495]
   [-0.04311169 -0.0514151  -0.05331332]]

  [[-0.00829746 -0.02092695 -0.01981318]
   [-0.01168443 -0.03692182 -0.04201169]
   [ 0.00414315 -0.02643757 -0.01393371]]

  [[ 0.00115572 -0.01409676  0.00989179]
   [-0.00993011  0.0026239   0.01365102]
   [-0.00908902 -0.02185817 -0.02249446]]]


 [[[-0.00261596 -0.01101893 -0.01434174]
   [-0.00882636  0.01335042 -0.0115315 ]
   [-0.00594846  0.0094718  -0.00917926]]

  [[ 0.0042511   0.01603228  0.00761445]
   [ 0.00868573 -0.0035891  -0.01171438]
   [-0.01386043 -0.03166084 -0.02392832]]

  [[-0.02280501 -0.01438932  0.00397674]
   [-0.01515157  0.02292392  0.00155829]
   [ 0.01709484  0.03681153  0.00517493]]

  ...

  [[-0.03070724 -0.03176394  0.00919667]
   [-0.00247401 -0.03515746  0.02475534]
   [-0.00223117 -0.04963391  0.00666106]]

  [[-0.02382195 -0.03043369 -0.01170183]
   [-0.0159875  -0.05343616 -0.02846117]
   [-0.02016656 -0.03893635 -0.02899467]]

  [[ 0.00123175  0.00304177 -0.00818563]
   [ 0.01194088  0.02347875 -0.00122947]
   [ 0.03163182  0.09849706  0.01116736]]]


 ...


 [[[-0.01397769 -0.01009647 -0.0067816 ]
   [-0.02033742 -0.01278793 -0.01562957]
   [ 0.01321054  0.03802695  0.00033175]]

  [[ 0.04002574  0.05881397  0.02928311]
   [-0.0020939  -0.01022991  0.02508332]
   [ 0.02388278  0.00763449  0.01391479]]

  [[-0.0110052  -0.0176697  -0.02250638]
   [ 0.00842155 -0.00716275 -0.0040214 ]
   [ 0.02450599  0.02879819  0.03858422]]

  ...

  [[-0.0257454   0.01615227  0.02476808]
   [-0.03089485 -0.05308107 -0.00379172]
   [ 0.01152441 -0.02049433 -0.03749909]]

  [[-0.03662365 -0.04662822 -0.0148595 ]
   [-0.00950983 -0.0091068   0.000436  ]
   [ 0.0051414   0.02431576  0.0337863 ]]

  [[-0.01667376 -0.02337933  0.00591194]
   [-0.00960273 -0.01179019 -0.00733569]
   [ 0.0377155   0.00489267  0.01037265]]]


 [[[-0.00261368  0.00933315 -0.01703855]
   [ 0.01856407  0.01275766 -0.01445865]
   [ 0.01268814  0.00890288 -0.01796005]]

  [[-0.00240348 -0.01538118  0.01871132]
   [ 0.03136859  0.00108753  0.01860572]
   [ 0.03137487  0.03150707  0.02574951]]

  [[ 0.01446808 -0.00498796 -0.00231094]
   [ 0.01534256  0.00013154  0.00070862]
   [ 0.00545959 -0.01176046  0.01342659]]

  ...

  [[ 0.02056042  0.0158176  -0.01303742]
   [-0.01666248  0.00692869 -0.01661109]
   [-0.00688342  0.01038634 -0.01766915]]

  [[ 0.01305573 -0.01822764 -0.01162075]
   [ 0.01301885 -0.00766015 -0.00582073]
   [ 0.02962913 -0.0122892   0.00698183]]

  [[-0.0069196  -0.02996953 -0.00336781]
   [-0.04626817 -0.05445848  0.00072381]
   [-0.04871845 -0.03955717  0.00358887]]]


 [[[-0.01615789 -0.05635034 -0.01747385]
   [-0.01741758 -0.05495656 -0.02379889]
   [ 0.03100359  0.01374425 -0.01048738]]

  [[ 0.04910986  0.01333256  0.00530274]
   [ 0.01972713  0.03421099  0.00440239]
   [ 0.00787344  0.00565567  0.03006902]]

  [[ 0.01276278  0.0056162   0.0154829 ]
   [ 0.03442265 -0.00819002 -0.00968889]
   [ 0.03658773  0.00029389 -0.02455281]]

  ...

  [[-0.00796796  0.01174192  0.01184562]
   [-0.00077828  0.00917629  0.01147441]
   [-0.01094542  0.0008279  -0.01576514]]

  [[-0.0206329  -0.07679136 -0.07455348]
   [-0.00254103 -0.03554568 -0.04223895]
   [ 0.01706181 -0.0113705  -0.0313545 ]]

  [[-0.0121479  -0.01133187  0.01527426]
   [-0.01412403 -0.00659504  0.01376133]
   [-0.00833789 -0.02194065 -0.00054669]]]]

Layer: features.14.bias
Shape: [256]
Weights:
[ 0.15270267  0.00259736  0.01176369  0.06116892  0.07512995  0.03363753
  0.03593296  0.1965187  -0.07755753 -0.04641776  0.01432515 -0.0798604
 -0.1669713  -0.00194271  0.26064965  0.12020232 -0.03555275 -0.09704606
  0.10956036  0.35742643 -0.11089996 -0.17993651  0.02622465  0.08534589
  0.06953271  0.18897389  0.01859961 -0.09098786 -0.04309814 -0.13298221
  0.06153137 -0.01633717  0.02682991  0.00145057  0.0058853   0.38321704
 -0.06606005 -0.02924331  0.15235034  0.04628709  0.00120955 -0.08493497
  0.01847253  0.1371348   0.01215726 -0.02793469  0.02990261  0.23998854
  0.05750105  0.00579465 -0.04232185 -0.07485747  0.06158138  0.03739863
 -0.05539656  0.27868745 -0.00782458  0.0378104   0.04478893  0.01459773
  0.1976216  -0.01007487  0.11339816 -0.05271346  0.01474431  0.02633035
  0.06079203  0.14327702 -0.14618848  0.04214947  0.18579945  0.04245618
 -0.00785657  0.10638642  0.05848845  0.07682606 -0.0238925  -0.00436105
 -0.08049098 -0.02211715  0.11400552 -0.06830759 -0.08270101 -0.03567151
 -0.05546338  0.37477773  0.00470394  0.46218488 -0.11367378  0.04994292
 -0.07818852 -0.00666926 -0.15400137  0.00213652  0.02135838  0.22764446
 -0.03220052 -0.10612945  0.02807794  0.02575802  0.00064432  0.01708427
 -0.01653581 -0.02368349  0.0153365  -0.15178017  0.08784471 -0.01980811
 -0.04775178  0.03253168 -0.00953584 -0.06726857  0.001548   -0.06006665
 -0.01567859  0.02876431  0.33013248 -0.02074137  0.12749217  0.02703639
  0.1409158  -0.07363277 -0.07611763  0.00525294 -0.1070255   0.05984083
 -0.0249721   0.30227464 -0.06994131  0.02564948  0.10783505 -0.01161731
 -0.03827925 -0.05912247 -0.1085493   0.07197221 -0.04298617  0.2818094
  0.01551317 -0.02550208 -0.04988649  0.022523    0.02559314  0.19649062
  0.01690236 -0.06358504 -0.04929932  0.21308047  0.03484831  0.09788471
  0.05099494 -0.00730543 -0.0826161  -0.00629306 -0.03954823  0.00542266
  0.18296152  0.00288562  0.03321499  0.24060914  0.05665625  0.00657569
 -0.13588686 -0.01627045  0.18774313 -0.05640519 -0.10236799 -0.08836622
  0.04638347  0.11902496 -0.11960241  0.02109945 -0.08096626  0.09974296
 -0.15558578 -0.07402983 -0.01000034 -0.02011672  0.08387069 -0.0453143
  0.00806555  0.05989744 -0.03378571  0.22298126 -0.10764854  0.00426715
  0.00654123 -0.04937872 -0.07674625  0.04747766 -0.01494557  0.22787397
 -0.04904586 -0.01242695 -0.02880175 -0.02377469  0.02325282 -0.09977012
  0.00372648  0.32844856 -0.04244057  0.33223492  0.01594362 -0.07101662
  0.04646317  0.08375426  0.03323646  0.19019097  0.03337645 -0.06127611
  0.15093656  0.03628066  0.12913893 -0.11147069 -0.04331512  0.04497201
 -0.0985714   0.07705066  0.08141907  0.08238778 -0.03078255 -0.01283068
 -0.00675261 -0.00594188 -0.02016244  0.01060405 -0.13168539  0.11570361
 -0.12424583 -0.08161034 -0.07689988 -0.0481137   0.05716541  0.1796276
 -0.03517712 -0.02845543  0.01441734  0.11941813 -0.00909899  0.13991536
 -0.03810922  0.02547986 -0.06787298  0.07254697  0.07073452  0.03242159
  0.02480709 -0.02884784 -0.03674721  0.15645082  0.04686147 -0.02008519
 -0.06768669 -0.03882591 -0.14508934 -0.19434787]

Layer: features.17.weight
Shape: [512, 256, 3, 3]
Weights:
[[[[-7.04074884e-03 -1.23713184e-02  2.23882194e-03]
   [-3.49449605e-04  8.30661319e-03 -3.37192020e-03]
   [ 1.48780597e-03  1.16291549e-02  1.79137848e-02]]

  [[ 1.70443971e-02  1.32682985e-02  1.61286462e-02]
   [-9.77209536e-04 -1.27613090e-03  5.34911267e-03]
   [-4.97391215e-03  6.83043106e-03 -1.44001804e-02]]

  [[-1.37061728e-02 -1.58519968e-02 -7.24440347e-03]
   [ 1.16947554e-02  7.90121593e-03  3.74428881e-03]
   [ 3.47244483e-03  1.22834835e-02  1.29327709e-02]]

  ...

  [[ 6.59743845e-02  6.91818520e-02  6.93272352e-02]
   [ 4.55269217e-02 -1.31596252e-03  6.06082529e-02]
   [ 7.05922842e-02  5.33742942e-02  2.00300775e-02]]

  [[ 1.47886826e-02 -1.74004938e-02 -2.33201180e-02]
   [ 1.11561455e-02  1.52636077e-02 -9.41709336e-03]
   [ 2.12545209e-02  1.42303435e-02 -1.35401282e-02]]

  [[-2.05770619e-02 -9.56743304e-03  6.91749016e-03]
   [-7.27090426e-03 -1.71790626e-02  2.01959182e-02]
   [ 1.73500180e-02  5.21812215e-03 -1.28724650e-02]]]


 [[[-1.09173674e-02 -1.61556862e-02 -4.34843451e-03]
   [-2.50082202e-02 -4.29661423e-02 -3.05630993e-02]
   [-2.63265464e-02 -2.44125556e-02 -8.56900029e-03]]

  [[-3.77715789e-02 -1.26237031e-02 -2.00127736e-02]
   [-3.39660197e-02 -1.68312062e-02 -1.01242503e-02]
   [-1.82168428e-02 -1.50195733e-02  1.30796549e-03]]

  [[ 1.21837240e-02 -1.20873805e-02  1.79908387e-02]
   [ 5.27223982e-02  8.03742185e-03  2.25137379e-02]
   [ 5.89925088e-02  3.27816270e-02  2.10874602e-02]]

  ...

  [[-4.83492715e-03 -4.72448720e-03  2.48344075e-02]
   [-7.23754754e-03 -1.10196387e-02  1.79234762e-02]
   [ 2.60534883e-02 -1.85636096e-02 -2.87142745e-03]]

  [[ 1.62335970e-02 -3.44696268e-02 -1.41602885e-02]
   [ 2.63442821e-03 -3.56052965e-02 -4.09183353e-02]
   [ 3.22300824e-03 -1.33586098e-02 -1.66698098e-02]]

  [[-2.80104149e-02 -1.82465017e-02 -1.02655049e-02]
   [-2.47391909e-02 -4.92460765e-02 -2.15062518e-02]
   [-3.29952165e-02 -3.49999182e-02 -2.90973820e-02]]]


 [[[ 6.97500864e-03  2.67286897e-02  3.28222848e-02]
   [ 3.64664034e-03 -1.79024190e-02 -4.34224121e-03]
   [-8.56156927e-03 -1.73901170e-02 -6.47829659e-03]]

  [[-2.46133488e-02 -1.89501494e-02 -2.50660181e-02]
   [-1.76966060e-02 -9.35339462e-03 -6.01264322e-03]
   [ 9.17161722e-03 -2.10257689e-03  8.83934274e-03]]

  [[-8.26466642e-03 -1.09647540e-02  1.16239823e-02]
   [ 1.56434998e-02 -1.46252820e-02  3.90838087e-03]
   [ 3.46103609e-02 -3.99682438e-03  1.78859208e-03]]

  ...

  [[-1.84486713e-02 -2.28752755e-02 -3.00079100e-02]
   [-3.74244452e-02 -4.20764387e-02 -5.07943705e-02]
   [-1.40386010e-02  4.47016507e-02  7.47151673e-02]]

  [[ 3.30041046e-03  7.31160073e-03  3.08857253e-03]
   [-4.48471867e-02 -5.69672277e-03 -1.38815735e-02]
   [-2.56955605e-02 -2.69928426e-02  6.30572671e-03]]

  [[ 1.85556465e-03 -1.51176872e-02  2.49697291e-03]
   [ 4.88535501e-02  2.72328425e-02 -2.21854001e-02]
   [ 1.19093806e-02  5.52651566e-03 -2.72815153e-02]]]


 ...


 [[[ 7.58095784e-03 -9.03655402e-03  1.43692095e-03]
   [-4.11505159e-03 -5.49690798e-03  1.43650537e-02]
   [-1.14093465e-03  2.92809075e-03  4.09533456e-03]]

  [[-4.29158323e-02 -3.93803082e-02 -1.53468009e-02]
   [-3.23253460e-02 -1.01376595e-02 -8.96019861e-03]
   [-6.71890564e-03  9.27472766e-03  3.95775959e-03]]

  [[ 6.25474658e-03  2.03944780e-02  3.27673890e-02]
   [-9.79068596e-03 -4.72314283e-03  3.30029987e-02]
   [-7.19009992e-03 -9.94331948e-03 -3.32288607e-03]]

  ...

  [[ 1.76581889e-02  4.66145538e-02  9.70463920e-03]
   [ 2.77059898e-03  1.79938367e-03 -3.29154613e-03]
   [-3.63302861e-05  1.33103523e-02 -3.92856402e-03]]

  [[-6.90392405e-03  6.35737553e-03  1.68235209e-02]
   [-2.97165718e-02 -2.25466937e-02  7.51268398e-03]
   [ 1.70910580e-03 -2.64053848e-02 -7.06846174e-03]]

  [[ 7.45947380e-03  1.07415486e-02 -3.14989942e-04]
   [-6.94482028e-03 -2.45102029e-02 -2.41443943e-02]
   [-3.15421335e-02 -1.52619546e-02 -1.45841753e-02]]]


 [[[ 4.95122224e-02  2.30434872e-02  2.21620351e-02]
   [-1.25178706e-03 -3.57875507e-03  6.60511898e-03]
   [ 1.45359561e-02  1.20923342e-02  1.02043496e-02]]

  [[-5.47160162e-05 -9.58752446e-03  1.03648910e-02]
   [-8.10469966e-03 -2.03126203e-02 -4.41846903e-03]
   [ 1.37947742e-02  1.43025210e-03  1.53854191e-02]]

  [[ 2.81897211e-03 -1.07074594e-02 -1.13692682e-03]
   [-2.17478140e-03 -2.25954074e-02 -1.03502888e-02]
   [-2.27678381e-02 -1.33094667e-02 -9.08041093e-03]]

  ...

  [[ 4.88378815e-02  2.89873220e-02  1.61211826e-02]
   [ 1.10925194e-02 -2.48499047e-02 -2.49109454e-02]
   [ 5.45522291e-03 -4.96569928e-03 -1.55050224e-02]]

  [[ 5.55986073e-03 -3.91901471e-02 -2.59695668e-02]
   [-1.96284782e-02 -4.33685519e-02 -1.19607532e-02]
   [-1.99654903e-02 -3.12069636e-02  4.52702894e-04]]

  [[ 1.11727016e-02  8.04485288e-04  9.50126909e-03]
   [-1.90426856e-02 -2.94716209e-02 -1.43607752e-02]
   [-3.04201003e-02 -1.25661567e-02 -1.61862653e-02]]]


 [[[-1.51040114e-03 -3.12499539e-03 -1.40888980e-02]
   [-2.54069199e-03  4.56011528e-03 -3.26326601e-02]
   [ 9.29354504e-03 -2.84524937e-03  1.92940724e-03]]

  [[-1.25089958e-02 -1.72588900e-02  1.34949537e-03]
   [ 5.46788657e-03 -5.50544681e-03  2.36345511e-02]
   [ 5.85665833e-03  1.25923334e-02  2.76106670e-02]]

  [[-1.35826394e-02 -4.17247303e-02 -3.41884345e-02]
   [-1.97505616e-02 -3.76255251e-02 -2.45008040e-02]
   [-5.76881086e-03 -2.13532746e-02 -4.62147268e-03]]

  ...

  [[ 1.12975203e-02 -5.50834695e-03 -1.76499058e-02]
   [-7.77809694e-03 -3.05554569e-02 -2.72867847e-02]
   [-2.64506359e-02 -4.33995239e-02 -2.30019428e-02]]

  [[-2.62867287e-03 -1.77040417e-02 -2.69017834e-02]
   [-4.51201806e-03 -4.02927734e-02 -2.82281879e-02]
   [-1.36121362e-02 -2.66514048e-02 -7.36934971e-03]]

  [[-9.85397864e-03 -1.28477141e-02 -8.33283761e-04]
   [-1.20882085e-02 -1.44399572e-02  1.55277830e-02]
   [-2.73146573e-02  5.25761582e-03  2.66796667e-02]]]]

Layer: features.17.bias
Shape: [512]
Weights:
[ 6.26299083e-02 -6.25662366e-03 -9.51539576e-02  6.43277019e-02
  5.06042019e-02  1.83267042e-01  1.20811880e-01  3.94965820e-02
  1.29948348e-01 -1.33347318e-01  2.94774830e-01  1.00956857e-02
 -2.20263172e-02 -2.40246430e-02 -8.87573957e-02 -1.24687120e-01
 -2.63380725e-02  1.22720320e-02  4.26540077e-02  2.22184714e-02
  7.90922344e-02  5.86740449e-02 -4.92182523e-02  3.21321934e-02
  2.73382198e-03 -6.44312054e-02 -2.57157758e-02 -2.52003241e-02
  6.72109425e-02  2.07526665e-02 -3.79404500e-02 -1.21868290e-02
 -4.80998419e-02 -1.38409451e-01 -9.52905566e-02 -1.74054261e-02
 -3.62435393e-02 -1.31654004e-02  1.09133326e-01 -3.81026044e-02
  1.15901493e-02 -1.66052114e-02 -4.37458567e-02 -4.69936021e-02
 -6.20956160e-02 -1.51538447e-01 -9.57474411e-02 -4.66057435e-02
 -6.66126832e-02  4.09099191e-01 -1.39508145e-02  5.83774457e-03
 -1.01987168e-01 -4.12694514e-02  6.60740817e-03 -2.02493798e-02
  7.11347088e-02 -5.46374619e-02  4.85602953e-03  5.72874472e-02
  6.70545036e-03 -1.15287851e-03  5.66072427e-02 -6.21562861e-02
  5.48268892e-02  5.03195673e-02  6.23634178e-03  2.51002043e-01
 -3.27673256e-02 -3.22216004e-01 -8.20888877e-02 -8.27939883e-02
  5.08754216e-02  1.53714746e-01  1.58375233e-01  9.62989703e-02
  4.41105254e-02 -9.35028344e-02 -4.13140468e-02 -6.78907409e-02
  7.42468983e-02 -6.75846860e-02  9.16099995e-02 -4.31052074e-02
 -1.77451819e-02 -3.23646963e-02 -2.26970345e-01 -1.85097922e-02
 -2.18795892e-03  3.15498561e-02  6.37268052e-02  4.10315655e-02
  3.56284454e-02 -1.57362651e-02 -3.98011729e-02  7.66510889e-02
 -2.44681574e-02  1.77553631e-02  4.51658517e-02 -7.79991448e-02
 -1.28104791e-01  5.58509212e-03 -3.64717878e-02 -7.23165199e-02
  1.54887028e-02  3.07426117e-02  1.24058314e-02  3.56927863e-03
  7.01283431e-03  1.13600502e-02  1.21888127e-02  1.76286008e-02
 -4.96948995e-02  2.95137733e-01  7.70491362e-02  1.23813428e-01
  2.96478450e-01  5.60952863e-03 -9.55510810e-02 -5.52575588e-02
 -4.81465906e-02  4.49064374e-02  5.36741689e-03 -4.02176976e-02
 -2.77451091e-02  7.89267048e-02  3.47496681e-02  2.08619609e-01
 -5.52491806e-02  9.26152989e-02  2.53782030e-02 -1.15782507e-02
 -9.11532249e-03 -4.78146337e-02  7.53792422e-03  4.18486372e-02
 -2.67781764e-02 -1.67341486e-01  1.58512406e-02  1.04533419e-01
 -1.28980912e-02  2.83167455e-02 -1.00047402e-01  4.86758165e-03
  6.87618554e-02 -1.77761465e-02 -7.69524351e-02 -6.76710084e-02
 -2.15323359e-01  1.60986722e-01 -2.23657396e-02  2.88390100e-01
  1.24631703e-01 -7.82797560e-02 -6.76957369e-02 -1.53917726e-02
  2.73025841e-01 -1.77512262e-02  6.39721751e-02 -1.68998614e-02
 -4.47329395e-02 -6.50579929e-02 -2.84364168e-02  5.25850877e-02
 -1.78193688e-01 -1.35980835e-02 -8.12957808e-02  1.70156181e-01
  6.53673410e-02 -5.14506288e-02 -1.94164619e-01  2.67613139e-02
 -1.71967801e-02  1.49294227e-01  3.71002480e-02 -5.57697006e-02
  1.17097683e-01  8.25043861e-03  9.10986960e-02  3.51563208e-02
 -1.83825893e-03  2.43808981e-02  6.64480089e-04  2.35472224e-03
 -4.61250171e-02 -1.55541822e-01  1.45686939e-01  1.30944386e-01
  7.59668127e-02  4.95927706e-02 -1.17541783e-01  7.92741328e-02
  1.83379471e-01  1.41394762e-02  3.50205526e-02 -1.53341293e-01
  2.83883780e-01 -3.13154981e-02  2.77620591e-02  2.23378256e-01
  2.23792747e-01  2.75745802e-02 -1.73527524e-02  6.61903620e-02
 -1.41529730e-02  3.45271900e-02  2.23802328e-01 -8.08978602e-02
 -1.09848432e-01 -5.34840524e-02 -1.31907105e-01  2.86623510e-03
  4.62265730e-01 -9.57966298e-02 -4.09299135e-02  1.21403471e-01
  5.05901054e-02 -2.03731973e-02 -9.43929236e-03  1.57473236e-02
 -1.33061111e-01 -2.33124141e-02 -4.78978492e-02 -8.11926275e-02
 -3.35832834e-02  1.60734728e-02  7.36998543e-02 -4.98189479e-02
 -8.01390875e-03 -8.42001569e-03 -1.14194773e-01  3.23031680e-03
 -1.32046208e-01 -5.24878949e-02  2.32596137e-03 -8.25627744e-02
  2.92140357e-02  8.54835816e-05 -8.08030143e-02  8.57342407e-02
 -3.01130097e-02  3.30953673e-02 -5.31731434e-02  9.13591310e-03
  2.94784810e-02 -2.51841620e-02 -1.23021416e-02 -1.79771051e-01
 -3.69705707e-02 -1.38395317e-02 -2.49559179e-01  5.04143210e-03
 -3.74406651e-02  1.52968094e-01  6.99446350e-02  3.84802967e-02
 -1.54202282e-01  1.01258837e-01  8.85860473e-02 -5.20745441e-02
 -3.41126993e-02  1.33378997e-01 -6.25935057e-03  5.52151576e-02
 -3.44892181e-02  5.49127581e-03  1.87107327e-03  1.03834502e-01
 -4.59904596e-02 -7.40822405e-02  3.07316389e-02  1.05285227e-01
 -1.38580397e-01 -1.24770263e-03 -4.11352608e-04  9.11241584e-03
 -4.63226065e-02  6.67335116e-04 -2.70234910e-03  8.98283496e-02
 -2.74748243e-02 -9.01512429e-02 -5.89796491e-02  2.12310269e-01
 -4.49244827e-02  2.03636624e-02 -4.38688062e-02  9.31404158e-03
  7.35863745e-02 -8.77373070e-02  8.89091659e-03 -1.88963767e-02
 -2.16309875e-01  9.31830704e-02 -1.30931437e-01 -1.84912488e-01
 -3.73792052e-02  5.49016707e-02  2.02063881e-02  2.06810366e-02
 -2.01133434e-02  1.42707214e-01 -4.71356441e-04  1.06241391e-03
  9.06829014e-02 -1.23952620e-01 -3.47340927e-02 -3.11234538e-02
  2.44666576e-01 -1.29420295e-01 -3.41374390e-02 -2.90397070e-02
  6.49921745e-02  3.85644510e-02  1.17973551e-01 -8.03038012e-03
 -9.38005671e-02  6.85202032e-02  2.18296070e-02  1.56979740e-01
  2.27848720e-03 -9.05692875e-02  2.19531264e-02  1.08139077e-02
  1.77909900e-03  3.18000138e-01 -1.91077944e-02 -6.56177774e-02
  7.67856510e-03 -1.03487104e-01 -3.94804962e-03 -8.88598897e-03
 -1.33778090e-02  4.22813147e-02  1.14240415e-01  2.83612341e-01
 -7.31437653e-02  4.00576852e-02  1.25515789e-01  9.18239728e-03
 -1.29022807e-01 -1.54939592e-01 -3.99421938e-02 -9.92726609e-02
 -8.91620293e-02  8.35840702e-02 -4.18887958e-02  6.98213056e-02
  1.22786731e-01 -8.49874318e-02 -6.66316822e-02  7.05645382e-02
 -1.43720657e-01  5.83894812e-02  5.20510748e-02 -8.97925124e-02
 -1.13376677e-01 -1.90085825e-02  3.25760841e-02 -6.12935461e-02
  1.65427387e-01  8.12618285e-02 -1.91531107e-01 -1.69962086e-02
 -6.40667370e-03  4.00496051e-02  1.55925676e-01 -1.14383794e-01
  1.37129292e-01  3.16399559e-02  1.04695588e-01  2.31699762e-03
  1.96547642e-01 -2.21740417e-02 -1.43313464e-02  1.05512179e-01
 -8.71343240e-02 -8.67773518e-02 -6.79595768e-02 -1.81132704e-01
  4.79577444e-02 -4.21293005e-02 -1.10955931e-01  2.64253706e-01
 -1.50254341e-02  2.87790522e-02  1.37904063e-01 -4.22451012e-02
  3.88982035e-02  1.73628181e-01 -5.66024333e-02 -7.04364106e-02
  8.61399770e-02  8.39591026e-02 -9.08268616e-02 -5.09415753e-02
 -5.65598607e-02 -3.24930884e-02 -4.18875851e-02 -2.38203164e-02
  1.73727483e-01 -5.67912683e-02 -4.00894508e-02  4.46920693e-02
  5.84704801e-03  1.18687212e-01 -9.93669927e-02  1.01341136e-01
 -3.43845598e-02  3.25990245e-02 -7.01884851e-02 -8.29393566e-02
  4.24701497e-02  4.99058031e-02 -1.29072025e-01 -1.07538052e-01
 -5.36687635e-02  2.08518468e-02  2.89847758e-02  1.28797498e-02
 -8.55571404e-03  1.13470681e-01  5.18524982e-02  7.46843889e-02
  4.87150401e-02  1.11012384e-01 -5.62556088e-02  2.04178810e-01
 -5.23519218e-02  2.10190237e-01  7.76457936e-02  6.86542988e-02
 -4.96735647e-02 -1.07106920e-02 -6.94670528e-02  2.05588996e-01
 -4.37979959e-02  6.37815893e-02 -1.54289633e-01 -4.03859429e-02
  2.52441838e-02 -8.28694701e-02 -1.15789045e-02 -7.20333979e-02
  1.75806239e-01 -3.58583517e-02  3.78658399e-02 -5.26655093e-03
  4.53340225e-02 -6.54316470e-02 -1.14545204e-01  2.15346307e-01
 -2.31690817e-02  9.26741213e-03  2.55365577e-02 -1.39711788e-02
 -1.67086259e-01 -8.70503262e-02  1.04228266e-01  3.06997657e-01
 -9.98911783e-02 -8.84791687e-02 -1.37375463e-02 -1.23326844e-02
 -3.93198989e-02 -2.87444722e-02 -7.73261636e-02  1.81697700e-02
 -6.93380013e-02  2.88358871e-02 -6.84528723e-02  5.12136854e-02
 -6.94535002e-02  1.19753368e-02 -4.25816216e-02 -7.57870376e-02
 -1.77024096e-01 -5.80282547e-02 -1.46383673e-01  4.36773635e-02
  3.77406133e-03 -7.67609179e-02 -8.25031176e-02 -7.34387198e-04
  1.15842834e-01  2.52123456e-02 -1.74526259e-01  1.39034003e-01
  1.12080112e-01 -1.31882384e-01  6.62984699e-02  6.07008813e-03
 -7.45874196e-02 -2.93800444e-03 -7.10806921e-02  2.53484435e-02
 -5.31886853e-02 -3.07650957e-02 -7.23771974e-02  4.19032395e-01
 -7.21052885e-02  3.80787626e-02  2.17473134e-01 -2.10126936e-02
 -2.77919997e-03 -9.69492421e-02  1.96484057e-03 -9.06259343e-02
  6.92040771e-02 -8.36900249e-02 -4.85360473e-02 -1.13879675e-02]

Layer: features.19.weight
Shape: [512, 512, 3, 3]
Weights:
[[[[-2.55349744e-03 -1.11583155e-02 -8.27691797e-03]
   [ 7.92908110e-03 -3.07973428e-03 -1.72107536e-02]
   [ 2.15173569e-02 -6.85536535e-03 -2.02027969e-02]]

  [[ 1.73280500e-02  1.35991452e-02  2.54074987e-02]
   [ 5.32666128e-03  1.11743426e-02  7.70548033e-03]
   [ 2.39765495e-02  2.46966816e-02  1.73178781e-02]]

  [[-1.06303263e-02 -2.01769955e-02 -2.83081401e-02]
   [ 2.30419692e-02  1.24048330e-02 -1.99340694e-02]
   [ 1.92129705e-02 -1.23965135e-02 -3.34339105e-02]]

  ...

  [[-2.67716926e-02 -1.89138446e-02 -3.79239991e-02]
   [-2.55021080e-02 -3.17196846e-02 -2.62519438e-02]
   [-2.48449389e-02 -1.89066678e-02 -1.92299727e-02]]

  [[-1.17576886e-02 -2.01065652e-02 -1.09279929e-02]
   [-4.72925464e-03  1.36838749e-03 -4.34298674e-03]
   [ 1.30074862e-02  1.96407665e-03 -4.94931452e-03]]

  [[-1.17126852e-02 -1.26937011e-04  8.52878846e-04]
   [-4.55448695e-04  1.58287231e-02  1.38758337e-02]
   [-1.13229277e-02  2.03464366e-02  6.91360608e-03]]]


 [[[ 8.92402232e-03 -1.94650143e-02 -1.73672270e-02]
   [ 5.80913096e-04  3.88401770e-03  2.46095993e-02]
   [-1.83398910e-02  1.62175987e-02  2.94504371e-02]]

  [[ 3.45265027e-03 -1.08440751e-02 -3.39237344e-03]
   [ 1.00019453e-02 -1.94923009e-03  1.10472636e-02]
   [ 3.66332359e-03  6.98173000e-03  1.97355356e-02]]

  [[-3.80009338e-02 -1.42509658e-02  2.63390038e-03]
   [-3.62236500e-02  2.26796400e-02  3.32896672e-02]
   [-1.07691875e-02  1.24410819e-02 -4.99490509e-03]]

  ...

  [[ 3.98959825e-03 -6.40575495e-03 -2.41011903e-02]
   [ 1.27905393e-02 -2.06367094e-02 -2.60497183e-02]
   [-2.72922404e-03 -1.56649854e-02 -4.90221335e-03]]

  [[ 2.30847280e-02  9.55735333e-03 -7.89412111e-03]
   [ 7.19882129e-03 -8.58245511e-03 -3.22978385e-03]
   [-2.01745704e-02 -9.54959169e-03 -4.66664368e-03]]

  [[-2.06952989e-02  8.86100531e-03  5.21694915e-03]
   [-5.88981109e-03  1.40582751e-02  5.35246963e-03]
   [-1.40024340e-02 -1.23161054e-03  7.76273373e-05]]]


 [[[-5.84294461e-03  2.71163369e-03  2.36241464e-02]
   [-4.19781357e-03 -9.08371247e-03  2.52921414e-03]
   [ 1.28599154e-02  6.17832830e-03  1.33946454e-02]]

  [[ 2.65290216e-02  1.92218721e-02  1.78673901e-02]
   [ 8.96796491e-03  1.46720316e-02 -7.23511039e-04]
   [-1.34107023e-02 -3.46501102e-03 -6.11789804e-03]]

  [[ 1.79535318e-02 -6.78806519e-03  3.99984047e-03]
   [ 1.22618871e-02  4.40358650e-03  5.82303852e-03]
   [ 8.09240527e-03  9.94596165e-03  1.53691545e-02]]

  ...

  [[ 1.33545250e-02 -4.97261202e-03 -2.59743016e-02]
   [ 1.87541246e-02  1.04449522e-02 -4.46967664e-04]
   [-1.18138222e-02 -6.55527180e-03 -2.66823848e-03]]

  [[-2.20840219e-02 -9.93086398e-03 -1.21862851e-02]
   [-8.34035687e-03 -8.98057595e-03 -5.75980498e-03]
   [-3.58553999e-03 -4.34837956e-03 -4.00493341e-03]]

  [[-1.04537047e-03  1.11569418e-02  1.24705443e-02]
   [-2.74787308e-04  3.75076197e-03  1.38452565e-02]
   [ 2.79570813e-03 -1.54539268e-03  1.07116960e-02]]]


 ...


 [[[-1.69917941e-02 -2.63170688e-03 -7.98170641e-03]
   [ 2.44935881e-03  2.65241060e-02  1.91201903e-02]
   [ 1.56633481e-02  3.97294834e-02  4.43461761e-02]]

  [[ 1.54294400e-02  9.71355662e-03  1.59090012e-02]
   [-1.83113348e-02  6.45253947e-03  1.95307415e-02]
   [-1.62760839e-02 -8.54347926e-03 -2.80230143e-03]]

  [[-1.18412413e-02 -1.33194579e-02 -2.57281661e-02]
   [-7.27755856e-03 -1.26586761e-02 -1.26578631e-02]
   [-3.58856656e-03 -3.33024445e-03  3.17209121e-03]]

  ...

  [[ 4.86997946e-04 -1.08896487e-03 -8.28003883e-03]
   [-1.05392858e-02 -1.08704390e-02 -1.20518561e-02]
   [-2.72406060e-02 -2.35296786e-02 -9.91505850e-03]]

  [[ 7.99567532e-03  3.44729214e-03  2.37969700e-02]
   [-1.93606988e-02 -1.40754525e-02 -7.23871775e-03]
   [-3.03554628e-02 -2.77285464e-02 -7.09751248e-03]]

  [[ 1.62411593e-02  5.03420969e-03 -5.41418837e-03]
   [-8.14957172e-03 -5.38347615e-03 -1.01047764e-02]
   [-1.87667310e-02 -9.43464227e-03 -1.69701334e-02]]]


 [[[-2.28016148e-03 -8.87605175e-03 -2.20222007e-02]
   [ 1.73547268e-02  1.42667321e-02 -5.11402590e-03]
   [ 8.54103267e-03 -1.54002177e-04  3.28401453e-03]]

  [[-3.52622452e-03 -1.59192216e-02  2.06763744e-02]
   [-2.54453532e-03  1.68203155e-03  1.61774512e-02]
   [-3.41676897e-03 -6.65508257e-03 -7.91881327e-03]]

  [[ 3.02589703e-02  2.86901258e-02  3.02517414e-02]
   [-1.82197802e-02 -9.36676282e-03  2.97703482e-02]
   [-2.19784100e-02 -4.92803147e-03  2.19610799e-02]]

  ...

  [[-1.86683312e-02 -1.51378643e-02  8.69737100e-03]
   [-1.47653921e-02 -2.35127229e-02  1.13472738e-03]
   [-1.47330938e-02 -3.17857079e-02 -2.63536046e-03]]

  [[ 1.58001333e-02  1.30733652e-02  3.22796777e-02]
   [ 1.26009397e-02  1.16811832e-02  1.19649582e-02]
   [ 3.51363886e-03  4.36785817e-03 -2.25073169e-03]]

  [[ 2.87224480e-04  4.16358933e-03  1.73676815e-02]
   [-1.71082653e-02  3.40451393e-03  3.06987129e-02]
   [-2.12616865e-02 -2.29496229e-02  1.60364956e-02]]]


 [[[-5.15539618e-03 -4.73297696e-04  9.66743659e-03]
   [ 1.38525531e-04 -9.16273333e-03 -1.60650141e-03]
   [-1.49926543e-03 -8.40198342e-03  1.53015312e-02]]

  [[ 1.37177296e-02  1.34647842e-02  1.97026115e-02]
   [ 9.38281417e-03  4.34029363e-02  4.06564251e-02]
   [-1.71587951e-02  8.05632118e-03  3.44502344e-03]]

  [[-1.52225839e-03  3.17548215e-02  2.92201024e-02]
   [ 1.05458023e-02  1.46739529e-02  2.54580565e-03]
   [-5.45707019e-03 -8.44968203e-03 -6.37149718e-03]]

  ...

  [[-8.93805001e-04 -2.21633492e-03  2.03942955e-02]
   [-1.34239681e-02 -1.43804532e-02  2.30277367e-02]
   [-1.12901796e-02 -1.52813829e-02 -9.12221801e-03]]

  [[ 1.47906980e-02  2.71212608e-02  1.84698030e-02]
   [-1.20509267e-02  4.45411075e-03  6.49778813e-04]
   [-7.17082759e-03 -1.53928986e-02 -1.36749670e-02]]

  [[ 2.56654900e-02  2.39790045e-02  1.53563898e-02]
   [-2.44733645e-03 -8.86449404e-03 -5.56691922e-03]
   [-2.34760661e-02 -1.91965848e-02 -2.33367179e-03]]]]

Layer: features.19.bias
Shape: [512]
Weights:
[-1.17519453e-01  9.37182736e-03  1.13432460e-01  1.24956192e-02
 -8.03471208e-02 -3.82290073e-02  2.59112064e-02  1.70840621e-02
 -3.23689245e-02 -1.71673149e-02  3.69166918e-02  5.61026745e-02
 -3.67917456e-02 -7.36906603e-02 -2.37316154e-02  7.08857924e-02
  1.38794243e-01  8.39611236e-03  1.00285754e-01  1.16171002e-01
  9.57235694e-02 -1.52875483e-01 -8.24821144e-02  7.53861591e-02
  4.36155088e-02  3.53078172e-02 -5.18306307e-02  5.51012680e-02
  1.00021027e-01 -1.28835666e+00  5.36755775e-04  4.99274023e-02
  6.31965101e-02  1.02851972e-01  2.31754720e-01  8.19853414e-03
  2.75949873e-02  8.33664909e-02  1.27682328e-01  1.39170766e-01
  1.45717829e-01  2.92826276e-02 -1.38406605e-01  2.56162472e-02
 -6.95949718e-02 -1.36120155e-01  3.13757583e-02  9.87648442e-02
  8.26541781e-02  8.43284428e-02  1.35629445e-01  5.06489426e-02
  1.25112217e-02  1.50019437e-01 -6.75530881e-02  4.30086330e-02
 -1.82814663e-03  1.66133404e-01 -9.12938341e-02  7.87357464e-02
  8.76398012e-02  1.03235887e-02 -1.74002618e-01  1.03014469e-01
  1.93015024e-01  5.46850413e-02 -2.95699425e-02  2.81548481e-02
  2.40792990e-01  1.08722411e-01  5.29276505e-02  7.90988058e-02
  8.87131393e-02  1.08651817e-02 -5.18219396e-02 -3.72906923e-02
  2.69832611e-01  3.09038302e-03  2.82058027e-03  2.05975533e-01
 -2.58452259e-03  1.30508721e-04 -2.29203627e-01  2.27634370e-01
  3.32663469e-02 -1.08712740e-01  6.88429698e-02 -3.36003527e-02
  8.53726640e-02 -2.22395994e-02  1.32901117e-01 -1.50207486e-02
 -2.16078609e-01 -5.15927412e-02  2.94577479e-01 -5.87810129e-02
 -1.17824664e-02 -3.77918854e-02  4.28067483e-02  4.95258123e-02
  1.96624711e-01 -1.94592565e-01  5.09968512e-02 -2.38695201e-02
  5.94808459e-02 -9.42797065e-02  1.25163794e-01  5.88785559e-02
 -3.85604575e-02  6.03030622e-03 -1.13756373e-03  9.45483968e-02
  5.50310537e-02  3.31004918e-01  1.03793539e-01  7.53295282e-03
  1.01663619e-01 -4.65313271e-02  1.71303257e-01  1.64910525e-01
  1.74766749e-01 -3.72723537e-03  8.33442584e-02  1.22432925e-01
  1.31921349e-02  6.03928231e-02  1.32147878e-01 -2.86124527e-01
  2.13669688e-01 -4.49831150e-02  7.65031129e-02  4.02920842e-02
 -5.49883097e-02  2.74559468e-01  8.81148130e-02  4.43573929e-02
  1.38971359e-01  3.05848084e-02  2.17868909e-02  1.69001967e-02
  1.53383855e-02  2.28252009e-01 -3.61958817e-02 -3.00906785e-02
  3.54452170e-02  2.21760105e-02  2.24340245e-01 -3.08881309e-02
  8.12822878e-02  9.73917767e-02  8.28566253e-02  1.03588998e-02
  9.76391956e-02  4.78450283e-02 -2.35385239e-01  9.26429182e-02
  5.16542047e-02 -9.95139778e-02  5.77986538e-02  1.03071310e-01
  9.17319432e-02  1.29840663e-02  3.68015468e-02  1.12533361e-01
  1.93906706e-02 -1.16915964e-01  3.92030507e-01 -6.36417419e-02
  1.15142830e-01 -1.59834310e-01  1.29194826e-01  1.75735712e-01
  1.22292796e-02 -5.78045808e-02  1.78587452e-01  8.73097256e-02
  1.90793633e-01  3.76508050e-02  2.86230315e-02  5.95166758e-02
 -2.11587295e-01  3.42424624e-02 -1.05910506e-02  2.56138537e-02
  1.04704492e-01 -5.56119755e-02 -2.04774160e-02  6.95569366e-02
  1.81199253e-01 -6.20362768e-03 -9.77890417e-02 -2.19761971e-02
 -3.13037098e-03  6.25322983e-02  1.17303189e-02 -3.49091063e-03
  4.26467694e-02  9.39148813e-02  1.25381723e-01  4.16267477e-02
  7.63107315e-02  1.21356867e-01 -5.55741675e-02  1.33787557e-01
  1.02687389e-01  1.04518794e-01  2.39864159e-02  1.40154108e-01
 -3.98685187e-02  3.19615826e-02  1.20457172e-01  1.53717743e-02
  7.45323226e-02 -1.93162605e-01  6.17522560e-02 -7.38447681e-02
 -2.52308957e-02  1.50008351e-01  1.45320579e-01 -8.46334636e-01
  8.70727897e-02  1.08185083e-01  3.50808278e-02  8.50534588e-02
 -1.22161075e-01  1.28346369e-01  1.56073511e-01 -3.75882350e-02
  8.01778436e-02  1.64526060e-01  1.22523621e-01 -6.75414165e-04
  8.29432607e-02 -3.91978808e-02 -1.35255083e-01  2.61160568e-03
 -1.34160072e-01  1.76372498e-01  8.79437849e-02  7.65242660e-03
  9.98150781e-02  6.94782063e-02  1.03684537e-01 -2.87790666e-03
  2.06549972e-01  5.86126819e-02  7.43682310e-02  8.99723917e-02
 -2.76908334e-02 -4.97305542e-02 -6.91351667e-02  1.08678252e-01
  2.62444224e-02 -2.02103779e-01  4.73622605e-02  1.23737283e-01
 -5.47738234e-03 -4.03126702e-03 -3.00346427e-02  1.40765235e-01
  1.23558529e-01  3.73403262e-03  2.64452398e-01  1.49172217e-01
  7.82216638e-02 -4.34842378e-01  2.88268384e-02  5.47603779e-02
 -1.23645440e-01 -3.03512305e-01  1.12068012e-01  7.13883862e-02
  2.58082058e-03  9.76872891e-02 -2.07695682e-02  7.69212991e-02
  4.80662882e-02 -3.50019000e-02  1.59714654e-01  6.84910864e-02
  7.32451826e-02  7.82023966e-02  2.54842173e-02  1.36911675e-01
 -9.77011863e-03  1.08450323e-01 -7.61608407e-02  7.71905296e-04
  2.03762800e-01 -9.94932577e-02 -9.34910402e-02  9.56775993e-02
 -6.87169004e-03 -1.09681018e-01  8.69181454e-02  3.65342200e-02
  3.35137635e-01  1.21805757e-01  1.82007611e-01 -9.68184620e-02
 -1.14851259e-01  1.29141361e-01  3.23081128e-02  1.19067304e-01
  3.45469229e-02  1.90146461e-01  7.29855523e-02  3.90301682e-02
 -1.05089843e-01 -9.83054843e-03 -1.51101172e-01 -8.97212848e-02
  3.76918584e-01  5.72113059e-02  9.94638726e-03  7.54256546e-02
  1.58938263e-02 -2.35181004e-02  1.62292328e-02  3.01738847e-02
  1.41736701e-01 -4.58733328e-02 -3.25192697e-02  2.43598595e-02
 -5.16935103e-02  8.07663426e-03  1.40542313e-01  1.47403970e-01
  6.70286417e-02 -6.37815287e-03 -7.71582425e-02  6.20786101e-02
  1.37302294e-01 -3.65733773e-01  2.22078755e-01  5.37399352e-02
  5.23011535e-02  2.08539274e-02  6.29669875e-02  2.20414668e-01
 -4.58899140e-02  1.16501898e-01 -6.45022318e-02  1.18556052e-01
  1.03173763e-01  7.31464922e-02  1.61694661e-01  1.00852318e-01
  9.50291604e-02  2.36911289e-02  4.74523157e-02  2.69651562e-01
  3.07461880e-02  1.05564080e-01  6.54786676e-02  2.15204000e-01
 -2.63984799e-01  5.19407168e-02  4.33736853e-02  3.14316563e-02
  7.88436234e-02 -2.14962646e-01 -3.10074147e-02 -1.82031929e-01
 -1.30605280e-01  1.99842975e-01  9.49022323e-02  2.95252055e-02
  1.27449408e-02  3.85086760e-02  6.02376089e-02  1.48073256e-01
  1.60398766e-01  6.24935292e-02  1.56209111e-01  4.24827971e-02
 -1.85203627e-01  3.69740538e-02  3.28427888e-02  1.50070190e-02
 -1.80082232e-01  1.79070711e-01  1.71621084e-01 -1.23255625e-02
  1.49677426e-01  4.96890731e-02  5.92298880e-02  1.17967434e-01
 -5.83773153e-03  1.40402213e-01 -3.36962759e-01  9.10604596e-02
 -1.28180142e-02  1.25522777e-01  1.44214928e-01  1.24930821e-01
 -1.38106830e-02  7.96338543e-02 -1.84661865e-01  3.53093445e-02
  4.81646471e-02  7.30567798e-02  1.02999233e-01  4.60922420e-02
  1.11998811e-01 -9.18884948e-03 -9.39842910e-02 -1.13224708e-01
  2.12264284e-01  1.03051588e-01  9.47765484e-02  5.31265438e-02
  4.21900451e-02  4.29963544e-02 -4.40302119e-02 -2.50951108e-02
 -5.59748858e-02  3.98548357e-02  7.23540857e-02  1.41463414e-01
  1.72090814e-01  7.61744678e-02  3.12530734e-02  6.52896687e-02
 -1.09769933e-01 -3.17027830e-02  1.13020964e-01  2.82848366e-02
 -3.31513695e-02  1.77354530e-01  9.35263783e-02  2.20774904e-01
 -1.74181852e-02 -1.57830659e-02  2.97586657e-02 -1.02740107e-02
  2.81758551e-02  4.18002941e-02  5.31038269e-02 -1.48591504e-01
  5.32507375e-02  3.18597555e-02  1.95419997e-01  8.03115498e-03
  1.46663969e-03  1.29452810e-01  1.35337964e-01  1.53590724e-01
  9.72775817e-02  8.61485228e-02 -1.11371525e-01 -1.79016199e-02
  9.25628841e-03  1.62931561e-01  4.94429111e-01 -1.40690386e-01
  6.11338504e-02 -1.24967843e-02 -9.61465463e-02  3.16451886e-03
  4.25699763e-02 -6.79515526e-02 -2.39230115e-02  1.66511238e-02
  7.40473112e-03 -5.45242615e-02 -1.71300665e-01  8.06714445e-02
  1.70444563e-01 -1.62082314e-01 -2.66328249e-02  7.44529665e-02
  2.47089118e-01  2.02638835e-01 -1.96711700e-02  5.05303815e-02
  1.58652395e-01  4.00153250e-02  1.76323265e-01 -3.78700137e-01
  1.42812237e-01  1.46955624e-01  1.05796069e-01  1.53230026e-01
  9.41017419e-02  1.12776995e-01 -1.30081445e-01  1.19615979e-02
 -1.67514279e-01  1.22491688e-01 -6.03013765e-03  3.44013982e-02
  5.59038995e-03  1.45619556e-01  8.88768956e-02  1.30263165e-01
  1.07849836e-02 -4.05647159e-02 -1.97659358e-02 -2.13360384e-01
  5.88494260e-03  1.47566348e-01  1.22802763e-03  7.30649456e-02
  1.31794084e-02  1.52854159e-01  1.05001502e-01  1.34558186e-01
  3.69272456e-02  1.25955313e-01  1.67685658e-01 -2.09592003e-03]

Layer: features.21.weight
Shape: [512, 512, 3, 3]
Weights:
[[[[-3.46181318e-02 -3.38009000e-02 -2.24973653e-02]
   [-3.22753303e-02 -2.85425633e-02 -1.50263896e-02]
   [-3.13071907e-02 -1.82627495e-02 -1.16619626e-02]]

  [[-6.77866628e-03 -5.16309077e-03 -1.14978869e-02]
   [-3.13527253e-03 -9.58557799e-03 -1.19399661e-02]
   [-1.69228110e-02 -1.58927236e-02 -9.20578744e-03]]

  [[ 2.17207484e-02  1.61384873e-03 -1.27620120e-02]
   [ 1.15411691e-02  3.91172199e-03 -1.79660246e-02]
   [ 8.25658813e-03 -7.29884207e-03 -1.87114831e-02]]

  ...

  [[ 1.16663333e-02  5.83556341e-03  5.13168983e-03]
   [ 2.71720067e-02  3.00960075e-02  2.21073087e-02]
   [ 5.07446229e-02  5.04259765e-02  5.25679216e-02]]

  [[ 1.56409014e-02  6.15313416e-03  1.04346620e-02]
   [-4.96282056e-03 -1.04724821e-02 -9.73994937e-03]
   [-1.30428458e-02 -1.18946005e-02 -8.30799527e-03]]

  [[-7.51999859e-03 -8.69177282e-03 -7.76415830e-03]
   [-2.10903957e-02 -1.25272358e-02 -1.44229569e-02]
   [-1.58327539e-02 -1.02706775e-02 -6.51190383e-03]]]


 [[[ 2.92620752e-02  2.45348755e-02  9.83332563e-03]
   [ 1.38753252e-02  1.18878195e-02  1.58682803e-03]
   [ 3.21871489e-02  2.78962236e-02  2.14283019e-02]]

  [[-1.29074007e-02 -1.64652318e-02 -1.07691865e-02]
   [-1.27297230e-02 -8.09626363e-04 -9.76101495e-03]
   [-1.78244393e-02 -1.97454239e-03 -6.04116591e-03]]

  [[ 7.39075802e-03  1.37823855e-03 -2.76533887e-03]
   [ 2.23624203e-02  3.12966667e-03  7.81034771e-03]
   [-3.61856027e-03  4.79484629e-03 -3.95602966e-03]]

  ...

  [[ 5.81021234e-03  6.19807804e-04 -9.21201427e-04]
   [-2.26064003e-03 -2.20016018e-02 -3.10965558e-03]
   [-9.45405196e-03 -2.80028861e-02 -2.27115247e-02]]

  [[ 2.05246359e-03 -3.41673172e-03  1.07965199e-02]
   [ 8.32352974e-03 -7.18541350e-03  8.96101911e-03]
   [ 1.15864929e-02 -4.00993275e-03  1.96339693e-02]]

  [[ 7.49213342e-03 -1.04781357e-03  1.58009119e-02]
   [ 7.95138534e-04 -1.68812517e-02 -2.47324700e-04]
   [ 1.59728993e-02  1.61924325e-02  3.70393554e-03]]]


 [[[-2.31025871e-02 -2.40848158e-02 -2.17035860e-02]
   [ 1.02761965e-02 -7.11285649e-03  6.88484171e-03]
   [ 8.56943242e-03 -1.92878000e-03 -2.88425433e-03]]

  [[-1.38411447e-02 -1.04919737e-02 -2.41015591e-02]
   [-2.76123974e-02 -2.57911403e-02 -1.29597466e-02]
   [-1.55980873e-03  3.61999293e-04  2.17405986e-02]]

  [[ 2.78553087e-02  2.62773149e-02  2.22898703e-02]
   [ 2.47804709e-02  2.51500718e-02  2.55661085e-03]
   [-1.90220948e-03  1.08231083e-02 -8.64232983e-03]]

  ...

  [[-6.30893232e-03  1.89076283e-03  6.99181575e-03]
   [-6.93074381e-03 -8.79471004e-03 -7.22529879e-03]
   [-3.53851006e-03 -4.95485635e-03 -8.78448877e-03]]

  [[ 8.23091064e-03  1.85457247e-04 -9.43082094e-04]
   [ 2.47963791e-04 -1.37338974e-03 -6.48443308e-03]
   [ 1.03301425e-02 -6.30962849e-03  2.98990961e-03]]

  [[-3.26146442e-03  1.12062367e-03  2.03406345e-03]
   [ 3.08823143e-03 -1.58765391e-02 -3.28553747e-03]
   [-1.09549146e-02 -5.55214146e-03 -1.20249329e-04]]]


 ...


 [[[-1.74620543e-02 -3.87144312e-02 -3.68433036e-02]
   [-2.39180103e-02 -3.93572934e-02 -2.37532910e-02]
   [-6.36240747e-03 -1.78504568e-02  1.03699323e-03]]

  [[ 2.83559822e-02  1.43635478e-02  8.28982517e-03]
   [ 1.78733170e-02 -1.16152014e-03  5.58509259e-03]
   [-1.26427342e-03 -8.95536225e-03 -3.05680209e-03]]

  [[ 5.14219562e-03  4.65030200e-04  9.01428610e-03]
   [ 1.98233835e-02  3.47365849e-02  2.82419026e-02]
   [ 3.20877284e-02  2.38401219e-02  2.20722593e-02]]

  ...

  [[ 3.49832675e-03  9.94246081e-03  4.53994283e-03]
   [ 1.10273324e-02  4.59294114e-03  2.64494354e-03]
   [ 1.75319966e-02 -1.03127712e-03 -8.39365926e-03]]

  [[-1.05490936e-02 -1.01708947e-02 -5.74164605e-03]
   [-8.27400759e-03 -8.31593759e-03 -1.43768359e-02]
   [-1.18002156e-02 -1.10003753e-02 -1.63236586e-03]]

  [[-1.30962105e-02 -3.16177309e-02 -2.55361591e-02]
   [-4.84185200e-03 -1.37717221e-02 -1.35684414e-02]
   [-1.50984591e-02 -8.90536606e-03 -1.28040491e-02]]]


 [[[ 3.83835891e-03 -6.26665773e-03 -1.16641046e-02]
   [ 3.39006423e-03 -1.16755655e-02 -6.11013919e-03]
   [-1.79719236e-02 -3.34680378e-02 -9.41374432e-03]]

  [[ 1.09845900e-03  1.39391253e-04  5.52185113e-03]
   [-9.37548745e-03 -3.60063114e-03 -3.16024198e-05]
   [-2.72970321e-03 -5.71764167e-03 -3.44848703e-03]]

  [[ 1.92356445e-02  1.28419381e-02  8.16269964e-03]
   [ 1.50623489e-02  4.39423369e-04  1.07945281e-03]
   [ 6.73595537e-03  9.02292505e-03  2.85753165e-03]]

  ...

  [[-7.08147930e-03 -4.95766662e-03  1.62719621e-03]
   [ 2.04178598e-03 -8.24399944e-03  8.44003912e-03]
   [ 6.39614882e-03 -5.50462911e-03  1.09840801e-03]]

  [[ 9.53777169e-04 -1.14394967e-02 -3.15155531e-03]
   [ 1.06694829e-03 -1.85380802e-02 -1.28314607e-02]
   [ 5.57362521e-03 -1.10385511e-02 -1.39917396e-02]]

  [[-1.94649231e-02 -1.28521211e-02 -1.83177702e-02]
   [-2.66979393e-02 -1.80113185e-02 -1.06624765e-02]
   [-1.64789483e-02 -1.44824153e-02 -1.61938407e-02]]]


 [[[-2.37282198e-02 -3.66946980e-02 -3.74996029e-02]
   [-1.34619535e-03 -3.95727227e-04  3.26434453e-03]
   [ 1.51737044e-02  2.69087292e-02  1.38401324e-02]]

  [[ 2.85358517e-04 -1.56107116e-02 -6.26894692e-03]
   [-4.97078116e-04 -2.22919192e-02 -2.02908348e-02]
   [ 1.28250271e-02 -1.67547818e-02 -2.18851920e-02]]

  [[ 8.56418163e-03  6.94435788e-03  9.68204066e-03]
   [ 3.25902482e-03  1.78211406e-02  7.33028632e-03]
   [ 1.23861153e-02  2.10822802e-02 -7.58969598e-03]]

  ...

  [[ 7.66725140e-03  1.37581173e-02  1.19454693e-02]
   [ 8.65672529e-03  1.03097409e-02 -1.61897787e-03]
   [ 1.70620922e-02 -6.15294138e-03 -4.06468054e-03]]

  [[ 1.56867113e-02  3.65503877e-03 -1.13095278e-02]
   [-1.45268961e-04  8.97126039e-04  2.05250597e-03]
   [-1.08049596e-02 -5.55661973e-03  8.81731324e-03]]

  [[-1.42616788e-02 -1.76384151e-02 -6.39323704e-03]
   [-2.47020693e-03 -1.23619391e-02 -2.28337739e-02]
   [-4.46220627e-03 -9.58700012e-03 -1.72038674e-02]]]]

Layer: features.21.bias
Shape: [512]
Weights:
[ 5.30958101e-02  1.04937032e-02  2.30305001e-01  3.76287885e-02
  8.63624439e-02 -5.34447916e-02  1.38578892e-01 -7.11225942e-02
 -4.15818766e-02 -6.03568330e-02  2.87018307e-02  3.98697443e-02
  2.45106071e-02 -2.91919596e-02  2.25176085e-02  1.57048598e-01
  1.50728852e-01 -3.47468071e-02 -2.93078553e-02  1.68655634e-01
 -7.89361596e-02  1.56621262e-01  6.92697316e-02  2.19404563e-01
  8.59604124e-03  4.42311428e-02  5.81543893e-03  3.20491105e-01
  2.13656664e-01  2.06774082e-02 -2.10564867e-01  2.34491527e-01
 -4.84043063e-04  1.28191352e-01  2.76702065e-02  1.37698539e-02
 -8.24801326e-02  1.16569929e-01  1.37761596e-03 -6.93434998e-02
 -4.24836203e-02 -4.86760736e-02  1.51559800e-01  4.51935157e-02
  9.54552069e-02  9.92300734e-02 -4.96015847e-02  1.03847578e-01
 -1.90581620e-01 -6.84779929e-03  1.28342554e-01 -1.54138297e-01
 -8.29172283e-02  1.28401920e-01  1.05150849e-01 -3.49029037e-03
 -2.40735821e-02  2.73860961e-01  8.25063288e-02  2.60814801e-02
  1.03851393e-01  1.28727660e-01  1.19041586e-02  3.22423220e-01
  7.75278881e-02  1.56797916e-01 -9.44959149e-02  6.58669248e-02
  1.16084844e-01  2.99280137e-02  4.50400114e-02  6.67567626e-02
 -3.86900757e-03  4.56081256e-02 -6.07978664e-02 -7.90312961e-02
  1.89728066e-01  9.71773565e-02  2.89066695e-02  5.25123440e-02
  8.94805789e-02 -1.02454918e-02 -3.32466774e-02  3.24549191e-02
  1.74490333e-01  5.41491024e-02  3.54867652e-02 -6.00347631e-02
  1.09882675e-01  4.16363031e-02  1.01682335e-01 -1.38799762e-02
 -2.21653171e-02 -2.36971118e-02 -2.06822623e-02 -7.41091743e-02
  7.11409003e-02  2.89309144e-01  5.74295111e-02  2.69981414e-01
  1.36904657e-01  1.28559649e-01  9.78287980e-02 -3.39651555e-02
 -6.07740343e-01  1.32853553e-01  7.61266947e-02  1.80834916e-03
  3.79827879e-02  3.13288346e-02  2.31510252e-01  1.72470272e-01
  7.91589394e-02  2.07007490e-02  4.63851541e-02  1.16945561e-02
  1.76028073e-01  8.71589128e-03  1.47341400e-01 -1.69797078e-01
  5.88732176e-02  4.59433114e-03 -2.51161121e-02 -1.00814467e-02
  1.72446653e-01  5.04569449e-02  3.14192707e-03  1.95415467e-01
  2.30099380e-01  1.48964850e-02  6.84531825e-03  6.44021034e-02
  2.82968760e-01 -1.97777562e-02 -6.64029568e-02 -1.79743871e-01
  1.15197472e-01  1.81147411e-01  6.78284913e-02  1.45292282e-01
  9.57494006e-02 -4.81068306e-02  1.75718844e-01  2.05960590e-02
  2.04528466e-01  1.04526155e-01  2.79290578e-03 -6.72081932e-02
  1.16050519e-01  3.23818803e-01 -2.56312117e-02 -1.00803107e-01
 -2.74755836e-01 -4.37896587e-02  1.02091894e-01 -4.06740233e-02
  1.42363206e-01  4.96211872e-02  1.36153977e-02 -6.89878166e-02
 -1.56035617e-01 -5.68301417e-02  2.19564557e-01 -3.90034802e-02
  7.67205060e-02  1.78286403e-01  3.58407535e-02 -1.65431544e-01
  1.06528439e-01  1.26911461e-01  8.08496773e-02  3.54088955e-02
  7.63357803e-02  1.83540002e-01 -3.19742635e-02  1.09521478e-01
 -7.78063685e-02 -1.82758681e-02  1.99166639e-03 -5.35136312e-02
  6.80309162e-02  1.30514398e-01  5.55124991e-02 -2.26923645e-01
 -1.75141662e-01 -2.32412890e-02 -8.00951496e-02  2.42149085e-01
 -9.37361717e-02 -2.79502012e-02 -4.00311910e-02 -8.98029422e-04
 -1.32812649e-01  1.66171510e-02 -1.78958297e-01  2.29282817e-03
  7.41349608e-02  7.47042745e-02 -5.38553223e-02  3.52394278e-03
  6.80478364e-02 -1.76272057e-02 -7.63049796e-02 -3.02253477e-02
 -1.99556090e-02  7.69578293e-02  6.66370913e-02  7.57835731e-02
  2.02653885e-01  8.27362314e-02  1.81891471e-01  1.58641726e-01
 -2.79688649e-02  1.22535042e-01  1.62731960e-01  7.05899671e-02
  3.63478251e-02  7.52383173e-02  4.01125848e-02  1.74563289e-01
  1.30551174e-01 -2.31470048e-01 -4.05919887e-02 -9.21172351e-02
  4.78339791e-02  5.89231960e-02 -4.92281541e-02  2.35606834e-01
  5.67989349e-02  2.61766324e-03  1.81971356e-01  2.44296163e-01
  1.59373611e-01  1.23564340e-01  2.08699405e-02  2.23006323e-01
 -8.72703344e-02  2.15209601e-03  5.60753755e-02  5.30875921e-02
  2.51350611e-01 -2.57132556e-02 -5.79865575e-02  1.21344887e-01
 -6.93315715e-02  1.71016157e-01  8.05381015e-02 -2.10090000e-02
  1.57480776e-01  1.35004640e-01  3.54842283e-02  1.95327941e-02
 -1.05877407e-01 -1.16295619e-02  7.32101351e-02  6.15262911e-02
  9.76466238e-02  1.23342179e-01  7.96046034e-02 -1.58917587e-02
  8.32916722e-02  1.11097671e-01  5.23852482e-02  1.59791932e-01
  4.54737619e-02  1.38268173e-01  2.31164340e-02 -1.38659447e-01
  3.09254192e-02 -1.93098802e-02  1.07775899e-02  2.74041463e-02
  1.52124688e-01 -2.10717395e-02  2.25972369e-01 -2.44621304e-03
 -4.52310666e-02 -5.37274629e-02  6.50862083e-02 -8.80787224e-02
 -6.89592361e-02  1.56885192e-01  3.51675078e-02  1.40162930e-02
  7.82277584e-02 -7.13009806e-03  7.08843023e-02 -2.02913079e-02
 -4.35561836e-02  8.25873017e-02  1.03552654e-01  2.40438432e-01
  1.52051484e-03  1.37401626e-01  1.02880336e-01  4.96361814e-02
  6.04222231e-02  2.21146699e-02  4.14988697e-02  1.79644406e-01
  8.98353457e-02  6.37803376e-02  4.40275520e-02  2.58704927e-02
  2.67493755e-01 -8.69916230e-02  4.21324410e-02  4.52513508e-02
 -6.70157978e-03  1.25894114e-01  1.07349783e-01  1.43374633e-02
  5.13157025e-02  3.77130648e-03  1.14602037e-02 -1.49468770e-02
 -1.37111861e-02  1.46966502e-01  9.27820355e-02  1.29156128e-01
  1.74695209e-01  5.85961677e-02  1.16361961e-01  5.89236729e-02
 -1.45326510e-01  1.60845984e-02  5.68911582e-02 -4.33712415e-02
  2.07904018e-02 -3.99387293e-02  4.30886023e-04  1.68717504e-01
  1.74372971e-01  1.16864696e-01 -1.22115423e-03  6.08857139e-04
  1.02100849e-01 -2.68952232e-02 -1.53793067e-01  1.86416507e-02
  1.45186335e-01  1.37227982e-01  1.60586655e-01  1.01883426e-01
  1.57896101e-01  5.33702038e-02 -9.69216507e-03  1.06619023e-01
 -3.22370045e-02  1.64593235e-01 -3.28016691e-02  9.41449627e-02
  1.60486326e-01  3.36225405e-02  8.26156586e-02  1.21634249e-02
  1.84754625e-01 -1.59225121e-01  1.10779963e-01  4.32970077e-02
  9.36488509e-02 -5.27358847e-03  1.57156453e-01  1.76634207e-01
  1.57664433e-01 -6.53559119e-02  4.14965935e-02  5.57154566e-02
 -5.03328927e-02  4.91380319e-02  5.14022559e-02  9.55573767e-02
  2.92884540e-02  7.08102286e-02  2.34795690e-01  1.32278636e-01
 -2.35988293e-02 -1.20553076e-01  2.62010433e-02  4.75311019e-02
 -2.30093766e-02  1.65848043e-02  7.95327723e-02  3.51507366e-01
  2.14871079e-01  3.21469232e-02  1.91505980e-02  2.61601716e-01
  6.06194958e-02 -2.74659414e-02  3.86852205e-01  2.60870457e-01
 -1.68578271e-02  3.97675261e-02 -1.16433799e-01 -1.10879146e-01
 -2.63945937e-01 -5.55115677e-02  2.38092497e-01  4.14666645e-02
 -6.77679107e-02  7.45450482e-02  1.64064884e-01  4.17917818e-02
  1.40259825e-02 -8.95754322e-02  4.07705009e-02 -6.36591017e-03
  1.65540442e-01  3.28793786e-02 -1.06874399e-01  2.14317843e-01
 -5.32193400e-04 -4.80292849e-02  1.50061101e-01  2.53566746e-02
 -6.60462454e-02 -3.57840606e-03 -1.51992170e-02 -1.52268216e-01
  2.68803954e-01  1.44338191e-01  8.76415372e-02  1.49046168e-01
  4.54065502e-02  6.88927248e-02  6.43605068e-02  3.10346693e-01
  4.93647382e-02 -9.45657212e-03 -1.73631776e-02 -1.00423276e-01
  8.59431326e-02  2.10780650e-02 -5.33628315e-02 -2.80326754e-02
 -3.24840657e-02  8.76308605e-03  5.78971356e-02  6.65334314e-02
  5.54714492e-03  1.62917376e-01  1.72332488e-03  3.36265981e-01
 -4.02994417e-02  4.19804826e-02  1.75685555e-01  6.03494653e-03
  6.15339726e-02  1.04506714e-02  1.34744002e-02  6.57096356e-02
  7.18670264e-02  4.95093614e-02  3.02978814e-01 -4.83462960e-02
  1.51347160e-01  1.00704379e-01  2.29323655e-02  2.64729530e-01
  9.39025655e-02  6.82768002e-02  2.11475536e-01  3.48360203e-02
  1.98282361e-01  9.35268179e-02  4.09882888e-02  2.04831272e-01
  2.46275365e-02 -1.59362312e-02 -7.92218149e-02  1.70628428e-02
  7.02276528e-02  5.14780357e-02  2.82796342e-02 -3.87624977e-03
 -1.00822300e-01  1.31695986e-01  1.72126070e-01  1.26822636e-01
  1.22985795e-01  9.61960405e-02  1.44343838e-01 -2.94537283e-02
  1.24330401e-01 -1.88973427e-01  4.47375420e-03  6.69916198e-02
 -4.81198393e-02  6.59724846e-02 -1.93155304e-01  2.27234319e-01
  5.69690652e-02  5.15784770e-02  6.00695908e-02  6.13070242e-02
  1.08061694e-01  3.70069183e-02  8.34964514e-02  2.34473199e-02
  4.91678230e-02  1.57814976e-02  1.12631563e-02  1.85507059e-01
  1.11208871e-01  9.09186527e-03 -1.76444128e-02  1.56114995e-01
 -3.90800573e-02  1.26580056e-02 -5.56520522e-02  8.25937390e-02]

Layer: features.24.weight
Shape: [512, 512, 3, 3]
Weights:
[[[[-2.96653472e-02 -1.80044789e-02 -2.07586512e-02]
   [-2.33916808e-02 -8.03098083e-03 -1.24258185e-02]
   [-1.77370571e-02 -1.77432802e-02 -2.70209219e-02]]

  [[-2.16865689e-02 -2.55254842e-02 -6.71558175e-03]
   [-1.30606750e-02 -1.75423417e-02 -1.59488786e-02]
   [-2.47815568e-02 -1.01037463e-02 -4.96350182e-03]]

  [[-4.29635262e-03 -3.64013598e-03 -6.35118177e-03]
   [ 1.03828814e-02  2.37134732e-02  1.46478955e-02]
   [-9.35285911e-03 -1.23162335e-03 -8.43638461e-03]]

  ...

  [[ 2.55679972e-02  3.84661071e-02  2.11582016e-02]
   [ 4.57258075e-02  5.09366356e-02  3.15456912e-02]
   [ 3.89033780e-02  4.36540172e-02  3.71432789e-02]]

  [[ 2.69013606e-02  1.07982038e-02  1.96475424e-02]
   [ 2.88890558e-03 -8.77298508e-03  1.49340779e-02]
   [ 4.26274491e-03 -8.33572447e-03  2.37831492e-02]]

  [[ 1.56741869e-02  1.12600513e-02  1.91767830e-02]
   [ 2.72154398e-02  9.90368985e-03  2.50094142e-02]
   [ 9.93356109e-03  7.71963969e-03 -1.39294320e-03]]]


 [[[-2.38203965e-02 -2.38436777e-02 -3.29660747e-04]
   [-1.25151603e-02 -1.18271271e-02  2.59571313e-03]
   [ 5.63516456e-04 -4.40903800e-03  9.82998684e-03]]

  [[ 9.05677024e-03  9.26294923e-03  1.49342129e-02]
   [ 2.89853709e-03  1.85033996e-02  1.63072050e-02]
   [-1.41002974e-02  2.38233991e-03 -1.11773266e-02]]

  [[-1.17103290e-02 -1.20351352e-02 -9.62491892e-03]
   [ 3.71059566e-03  1.33834314e-02  1.12103242e-02]
   [ 2.53768987e-04  9.54908901e-04  2.68695271e-03]]

  ...

  [[-1.39273156e-03 -3.75159230e-04  3.25137889e-03]
   [ 2.49058716e-02  2.38911770e-02  1.40501873e-03]
   [ 2.87562013e-02  2.85973381e-02  6.64990302e-03]]

  [[-5.66463126e-03  1.57828685e-02  4.79087373e-03]
   [-1.40840774e-02  8.07574578e-03 -2.09889514e-03]
   [-6.88151922e-03 -1.79412309e-03 -1.14871506e-02]]

  [[ 3.29675227e-02  5.84154427e-02  8.33285041e-03]
   [ 1.04108006e-02  3.58601660e-02  8.33626743e-03]
   [-1.56962667e-02 -1.50415916e-02  1.73147931e-03]]]


 [[[ 2.11411659e-02  1.57979783e-02  1.64437983e-02]
   [ 1.49051454e-02  6.39037089e-03  2.62914109e-03]
   [ 3.34578417e-02  1.33439507e-02  1.30051970e-02]]

  [[ 1.12418728e-02  8.74952320e-03  2.70070089e-03]
   [ 2.28157789e-02  1.44781107e-02  4.86025913e-03]
   [-3.77913268e-04 -4.81876684e-03 -1.15551306e-02]]

  [[-2.84688845e-02 -2.92246100e-02 -3.59245874e-02]
   [-2.36545764e-02 -1.73228886e-02 -2.43098084e-02]
   [-2.71810293e-02 -2.80155987e-02 -2.46097520e-02]]

  ...

  [[-9.09451488e-03 -1.16484286e-02 -1.83680851e-03]
   [-9.17412527e-03 -1.17298281e-02 -5.22443093e-03]
   [-3.26139678e-04 -3.27327265e-03 -1.53144673e-02]]

  [[-5.34042204e-03  3.14059178e-03 -4.08758782e-03]
   [-1.84483416e-02 -1.42049752e-02 -8.00509658e-03]
   [-4.10174653e-02 -1.76711623e-02 -1.60753112e-02]]

  [[-5.06190304e-03 -3.86574976e-02 -1.67238526e-02]
   [ 7.77098816e-03 -4.61231507e-02 -3.37937102e-02]
   [ 3.01871654e-02 -4.11106227e-03  4.12630150e-03]]]


 ...


 [[[-8.44395161e-03  1.44783882e-02  2.09245342e-03]
   [-1.82770398e-02  9.96493176e-03 -9.66852717e-03]
   [-2.73291953e-02 -9.86955245e-04 -7.93089997e-03]]

  [[ 2.28441004e-02  3.18017881e-03  1.72228906e-02]
   [ 7.99445901e-03 -1.74376108e-02 -1.81382690e-02]
   [ 5.69328712e-03 -1.13537824e-02  3.03468970e-03]]

  [[-8.31745751e-03 -3.18108834e-02 -2.20943671e-02]
   [ 1.46383663e-05 -1.53156025e-02 -1.52665665e-02]
   [-7.26702716e-03 -8.06661416e-03 -5.57027245e-03]]

  ...

  [[ 1.22084224e-03 -4.19813721e-03  2.48745549e-03]
   [ 1.25510739e-02  3.91568337e-03  3.42466985e-03]
   [ 9.64856613e-03  1.49650211e-02  7.20436499e-03]]

  [[-2.34186072e-02 -2.43474692e-02 -1.62476916e-02]
   [-1.90575048e-02 -2.28907317e-02 -1.81883909e-02]
   [-6.62993593e-03 -2.00424828e-02 -1.35630518e-02]]

  [[-1.70240663e-02 -2.09707655e-02 -3.78415175e-02]
   [-5.24464156e-03 -2.06232686e-02 -2.70469915e-02]
   [ 1.43694626e-02 -1.00636370e-02  7.11086718e-03]]]


 [[[ 8.49265419e-03  2.87161637e-02  1.74518730e-02]
   [ 1.37379598e-02  1.89168882e-02  5.48506295e-03]
   [ 1.47815393e-02  1.07754683e-02 -2.34557688e-03]]

  [[ 8.87907855e-03  1.19229462e-02  2.73218714e-02]
   [ 2.52283886e-02  2.21882928e-02  3.03054918e-02]
   [ 3.57364565e-02  2.44266894e-02  2.18148977e-02]]

  [[-5.70706185e-03 -8.79127346e-03 -1.35296769e-02]
   [-5.40853664e-03 -1.74069172e-03  2.31307140e-03]
   [ 8.30931496e-03  4.27476037e-03  1.23034194e-02]]

  ...

  [[ 5.56126377e-03  1.10084182e-02 -7.14865106e-04]
   [ 1.05561819e-02  2.23419834e-02 -1.00478856e-03]
